tree
version=v3
num_class=1
num_tree_per_iteration=1
label_index=0
max_feature_idx=21
objective=regression
feature_names=section round home_team away_team venue weather temperature humidity broadcasters capacity home_team_score away_team_score year month day dayofweek day_of_week is_holiday season time_of_day kick_off_hour prefecture
feature_infos=[0:33] [0:2] [0:29] [0:29] -1:32:58:55:30:44:45:23:1:19:21:48:41:18:29:59:17:37:2:7:16:5:26:3:25:10:43:0:8:13:34:31:22:6:12:38:4:50:39:33:46:49:61:40:42:47:20:57:15:52:54:60:35:56:27:36 -1:1:12:35:0:14:37:2:13:27:30:22:9:4:6:46:7:21 [0.80000000000000004:33.899999999999999] [12:99] [0:668] [12584:72081] [0:7] [0:7] [2006:2016] [2:12] [1:31] [0:6] -1:5:6:2:1:3:4 -1:0:1 -1:1:2:0:3 [0:1] [12.566666666666666:20.066666666666663] [0:25]
tree_sizes=2730 2740 2748 2752 2746 2761 2731 2741 2707 2766 2769 2750 2762 2765 2752 2761 2728 2735 2765 2749 2767 2733 2743 2739 2715 2725 2710 2713 2736 2756 2756 2769 2775 2762 2757 2781 2758 2731 2746 2767 2760 2780 2740 2773 2771 2775 2762 2803 2760 2758 2789 2789 2776 2781 2774 2760 2765 2786 2749 2781 2776 2792 2770 2756 2766 2788 2784 2768 2783 2780 2803 2741 2773 2738 2773 2784 2765 2765 2779 2753 2779 2778 2783 2761 2772 2769 2796 2758 2778 2721 2777 2740 2764 2796 2768 2782 2760 2756 2790 2772 2767 2779 2773 2758 2778 2738 2780 2736 2775 2774 2748 2712 2769 2789 2532 2778 2763 2759 2753 2760 2774 2764 2758 2793 2789 2782 2758 2788 2787 2755 2773 2770 2771 2766 2779 2768 2759 2765 2797 2749 2761 2748 2764 2761 2800 2742 2779 2743 2777 2750 2768 2752 2781 2769 2778 2771 2777 2772 2739 2777 2765 2786 2788 2776 2778 2784 2763 2756 2744 2769 2744 2735 2762 2754 2763 2752 2773 2763 2754 2750 2772 2775 2752 2736 2772 2762 2740 2781 2758 2735 2756 2759 2771 2775 2762 2768 2779 2741 2744 2778 2775 2767 2761 2781 2786 2753 2767 2768 2775 2759 2780 2757 2759 2767 2766 2765 2783 2759 2754 2760 2745 2757 2756 2742 2760 2757 2769 2759 2772 2761 2767 2746 2760 2731 2758 2727 2746 2752 2760 2744 2753 2754 2753 2747 2759 2768 2779 2754 2771 2748 2736 2788 2778 2772 2752 2769 2767 2749 2766 2753 2761 2726 2743 2760 2719 2788 2753 2689 2760 2766 2779 2752 2748 2770 2772 2755 2774 2766 2767 2767 2781 2753 2761 2740 2744 2757 2744 2733 2750 2755 2752 2763 2751 2768 2789 2770 2742 2763 2770 2767 2735 2767 2747 2766 2745 2736 2742 2773 2747 2738 2781 2769 2757 2747 2744 2746 2749 2740 2730 2749 2755 2783 2741 2756 2753 2741 2769 2750 2762 2758 2493 2764 2774 2415 2734 2751 2742 2768 2740 2722 2735 2762 2735 2733 2725 2760 2745 2765 2716 2766 2719 2713 2752 2736 2728 2747 2752 2696 2738 2687 2695 2750 2711 2730 2778 2725 2667 2679 2719 2384 2649 2727 2736 2731 2666 2754 2707 2734 2772 2727 2753 2742 2749 2698 2735 2756 2730 2724 2745 2711 2751 2723 2752 2733 2686 2759 2743 2691 2736 2757 2678 2676 2677 2680 2713 2711 2746 2743 2756 2718 2684 2696 2739 2714 2742 2734 2727 2722 2728 2694 2709 2680 2691 2706 2647 2678 2678 2704 2683 2735 2754 2675 2663 2742 2693 2653 2689 2674 2718 2636 2652 2711 2638 2662 2631 2657 2627 2610 2653 2640 2656 2642 2670 2676 2642 2680 2649 2667 2638 2659 2671 2632 2666 2632 2656 2612 2656 2660 2653 2646 2592 2649 2629 2665 2642 2650 2679 2610 2028 2640 2653 2500 2641 2621 2638 2628 2664 2644 2597 2637 2675 2643 2637 2672 2669 2641 2646 2614 2654 2646

Tree=0
num_leaves=31
num_cat=4
split_feature=4 21 4 8 4 4 12 9 20 13 2 0 14 9 6 12 7 15 9 2 13 3 3 12 6 11 14 12 15 8
split_gain=1.16088e+11 2.37922e+10 1.57048e+10 2.98402e+09 1.94738e+09 1.93117e+09 2.18159e+09 1.15957e+09 1.05429e+09 7.57898e+08 7.50875e+08 1.03348e+09 6.26245e+08 5.80521e+08 5.53866e+08 5.14061e+08 4.64025e+08 4.61468e+08 4.08608e+08 6.98095e+08 5.73256e+08 4.04528e+08 6.8213e+08 5.5026e+08 3.55096e+08 3.34741e+08 3.1638e+08 2.91723e+08 2.91558e+08 2.73065e+08
threshold=0 6.5000000000000009 1 223.50000000000003 2 3 2010.5000000000002 18697.000000000004 15.008333333333335 4.5000000000000009 9.5000000000000018 26.500000000000004 3.5000000000000004 36402.000000000007 26.550000000000004 2007.5000000000002 63.500000000000007 4.5000000000000009 52960.500000000007 12.500000000000002 9.5000000000000018 20.500000000000004 15.500000000000002 2009.5000000000002 17.050000000000004 1.5000000000000002 15.500000000000002 2007.5000000000002 4.5000000000000009 429.50000000000006
decision_type=9 2 9 2 9 9 2 2 2 2 2 2 2 2 2 2 2 2 2 2 2 2 2 2 2 2 2 2 2 2
left_child=1 3 4 -1 10 6 15 -4 -5 -10 11 24 -7 -9 26 -3 -15 -12 19 20 25 22 23 -20 -2 -14 -11 -19 -6 -18
right_child=2 5 7 8 28 12 -8 13 9 14 17 -13 18 16 -16 -17 29 27 21 -21 -22 -23 -24 -25 -26 -27 -28 -29 -30 -31
leaf_value=21196.266626810921 18765.914697160981 20087.618549887844 17288.501835284664 20521.398768970517 17609.607285198061 19102.502230652066 18791.249517692911 17447.174141990115 19379.359017053786 20534.827341096636 17713.2137076094 17812.162203826516 18487.770534439725 18014.04455874236 19656.991625793667 19519.202602420675 17309.418548009839 17828.906730102277 18410.731616409514 18312.249724980196 19105.726807474981 18532.239342067351 19323.686065151847 18990.619399163352 18343.009469657743 18868.475995039833 19997.972060532047 18114.013960285014 17837.678053242154 17763.46754380763
leaf_weight=28 26 26 568 35 67 33 38 535 23 21 43 34 83 34 24 41 26 43 30 74 27 44 27 36 84 32 23 217 343 27
leaf_count=28 26 26 568 35 67 33 38 535 23 21 43 34 83 34 24 41 26 43 30 74 27 44 27 36 84 32 23 217 343 27
internal_value=18000.6 19160 17631.4 20262.5 17960.3 18837.9 19275.1 17396.9 20055 19875.6 18103.7 18294 18668.6 17486.1 20043.4 19739.8 17725.7 18016.7 18647 18561.3 18691.1 18782.1 18900.3 18727 18443 18593.7 20254.2 18066.9 17805.2 17540.7
internal_weight=0 645 2047 154 857 491 105 1190 126 91 447 144 386 622 68 67 87 303 353 216 142 137 93 66 110 115 44 260 410 53
internal_count=2692 645 2047 154 857 491 105 1190 126 91 447 144 386 622 68 67 87 303 353 216 142 137 93 66 110 115 44 260 410 53
cat_boundaries=0 2 4 6 8
cat_threshold=3222275136 70785 44048544 209995780 33554432 209715204 0 66560
is_linear=0
shrinkage=1


Tree=1
num_leaves=31
num_cat=3
split_feature=9 4 4 2 12 8 21 9 4 3 6 0 12 12 15 10 14 14 8 10 11 7 9 3 13 6 8 2 9 15
split_gain=9.43304e+10 2.08877e+10 9.86141e+09 5.52652e+09 3.99294e+09 1.44841e+09 1.08061e+09 8.53225e+08 8.46619e+08 7.75252e+08 6.96892e+08 6.07105e+08 5.8564e+08 5.23504e+08 4.45809e+08 4.4325e+08 4.78848e+08 4.05899e+08 3.89379e+08 4.52173e+08 3.65195e+08 3.58632e+08 3.15901e+08 3.90445e+08 3.15687e+08 2.87878e+08 5.04987e+08 2.75648e+08 3.70894e+08 2.65232e+08
threshold=38595.000000000007 0 1 19.500000000000004 2009.5000000000002 223.50000000000003 15.500000000000002 18697.000000000004 2 8.5000000000000018 19.050000000000004 26.500000000000004 2013.5000000000002 2010.5000000000002 4.5000000000000009 2.5000000000000004 8.5000000000000018 18.500000000000004 238.50000000000003 1.5000000000000002 1.5000000000000002 57.500000000000007 67045.500000000015 12.500000000000002 10.500000000000002 21.050000000000004 236.50000000000003 10.500000000000002 20462.000000000004 2.5000000000000004
decision_type=2 9 9 2 2 2 2 2 9 2 2 2 2 2 2 2 2 2 2 2 2 2 2 2 2 2 2 2 2 2
left_child=2 3 8 5 -5 -2 11 -4 14 -6 -7 18 -13 -12 -1 16 -8 25 -3 -20 -17 -11 -19 -24 -16 -18 -27 28 -9 -10
right_child=1 6 7 4 9 10 15 27 29 21 13 12 -14 -15 24 20 17 22 19 -21 -22 -23 23 -25 -26 26 -28 -29 -30 -31
leaf_value=-254.01170924080745 1776.9435310609879 290.19222617078185 -640.88998374401683 2850.7501875000003 2141.3417480468752 619.29511348839969 955.13454227770785 -432.16455908707212 -396.92213372802735 1818.52814489294 1485.2142190867457 -293.10771473693848 372.78499919346405 820.18003173828129 43.215115642179398 220.04334155259991 245.58030024937221 616.59460337502617 822.3905995568565 264.99490800337361 715.829847462972 1336.4011160956488 652.32497027853265 1223.2338569335939 345.06023468017582 979.28032476251781 343.927448772562 -414.6240128652255 -662.76273053395664 -149.31555046366756
leaf_weight=45 31 67 568 50 33 33 59 140 50 27 29 25 28 20 259 39 35 70 43 22 24 36 23 25 40 22 29 360 139 321
leaf_count=45 31 67 568 50 33 33 59 140 50 27 29 25 28 20 259 39 35 70 43 22 24 36 23 25 40 22 29 360 139 321
internal_value=0 935.232 -374.677 1655.8 2126.11 1194.66 527.293 -547.179 -74.7749 1748.7 974.531 344.572 58.6847 1213.77 38.3181 647.159 704.229 631.663 459.36 633.734 408.914 1543.03 752.084 949.673 83.5957 466.435 618.001 -472.444 -547.05 -177.891
internal_weight=0 770 1922 259 146 113 511 1207 715 96 82 185 53 49 344 326 263 204 132 65 63 63 118 48 299 86 51 639 279 371
internal_count=2692 770 1922 259 146 113 511 1207 715 96 82 185 53 49 344 326 263 204 132 65 63 63 118 48 299 86 51 639 279 371
cat_boundaries=0 2 4 6
cat_threshold=0 66561 44048544 75890688 33554432 75497472
is_linear=0
shrinkage=0.1


Tree=2
num_leaves=31
num_cat=3
split_feature=9 4 4 2 12 8 2 2 4 13 14 9 6 1 0 14 0 20 3 15 8 15 6 7 8 8 15 20 2 6
split_gain=7.64076e+10 1.6919e+10 8.23224e+09 4.47648e+09 3.23428e+09 1.17321e+09 8.84185e+08 1.11631e+09 7.12599e+08 6.6652e+08 6.42425e+08 5.85119e+08 5.71234e+08 5.25386e+08 4.79582e+08 4.29984e+08 4.07786e+08 4.01634e+08 3.67593e+08 3.65575e+08 3.47305e+08 2.88829e+08 2.76701e+08 3.23443e+08 2.7036e+08 2.48355e+08 2.3463e+08 2.31248e+08 2.2543e+08 2.14865e+08
threshold=38595.000000000007 0 1 19.500000000000004 2009.5000000000002 223.50000000000003 16.500000000000004 13.500000000000002 2 9.5000000000000018 11.500000000000002 18697.000000000004 19.850000000000005 1.0000000180025095e-35 17.500000000000004 6.5000000000000009 30.500000000000004 18.574999999999999 12.500000000000002 4.5000000000000009 98.500000000000014 2.5000000000000004 17.350000000000005 48.500000000000007 453.50000000000006 399.50000000000006 4.5000000000000009 15.075000000000001 1.5000000000000002 21.250000000000004
decision_type=2 9 9 2 2 2 2 2 9 2 2 2 2 2 2 2 2 2 2 2 2 2 2 2 2 2 2 2 2 2
left_child=2 3 8 5 27 -2 7 9 17 13 -6 -4 -7 14 26 -8 -16 20 -12 -19 -1 -13 -17 -24 25 -22 -3 -5 -11 -25
right_child=1 6 11 4 10 12 15 -9 -10 28 18 21 -14 -15 16 22 -18 19 -20 -21 24 -23 23 29 -26 -27 -28 -29 -30 -31
leaf_value=-286.62564498901367 1599.2491726783014 134.4604246720024 -576.80097775056333 2808.2922940340909 1923.1547072466683 599.93620417668274 997.47923736572272 -227.70570271809899 -160.88544588581058 933.73533620526712 1589.1914601643882 -603.58279658664367 1128.4391771893168 682.63278618706602 -47.156030244647333 867.76652087178718 442.79795214843756 -417.64003473917649 1095.7433891883263 -10.971825172787621 154.15152460734052 -407.82024326369879 233.43524561914907 333.57086227416994 -38.676851327078687 470.86293940697954 486.80647895920947 2375.0474260602678 534.45685823880717 708.388986822275
leaf_weight=20 31 23 568 22 34 39 32 27 397 31 36 88 43 45 53 29 25 30 26 84 123 525 29 20 56 31 106 28 26 65
leaf_count=20 31 23 568 22 34 39 32 27 397 31 36 88 43 45 53 29 25 30 26 84 123 525 29 20 56 31 106 28 26 65
internal_value=0 841.709 -337.209 1490.22 1913.5 1075.2 474.564 388.919 -70.9351 442.799 1573.83 -499.449 877.078 372.949 305.627 666.119 109.881 34.4863 1382.26 -117.99 111.561 -435.923 591.969 521.81 149.483 217.905 423.985 2565.68 751.608 620.196
internal_weight=0 770 1922 259 146 113 511 336 741 309 96 1181 82 252 207 175 78 344 62 114 230 613 143 114 210 154 129 50 57 85
internal_count=2692 770 1922 259 146 113 511 336 741 309 96 1181 82 252 207 175 78 344 62 114 230 613 143 114 210 154 129 50 57 85
cat_boundaries=0 2 4 6
cat_threshold=0 66561 44048544 75761664 33554432 75497472
is_linear=0
shrinkage=0.1


Tree=3
num_leaves=31
num_cat=5
split_feature=4 21 4 8 4 12 4 20 9 13 12 4 6 14 7 3 3 3 12 13 3 20 7 6 2 2 7 12 14 0
split_gain=6.20475e+10 1.23566e+10 8.29152e+09 1.68834e+09 1.0536e+09 1.33408e+09 9.95278e+08 7.19322e+08 6.31429e+08 5.36829e+08 4.691e+08 5.90867e+08 4.0862e+08 3.97313e+08 3.72912e+08 3.71348e+08 8.19891e+08 8.80567e+08 4.77967e+08 5.73399e+08 4.76438e+08 3.28611e+08 3.0412e+08 2.95086e+08 2.94547e+08 4.27076e+08 2.93418e+08 2.91627e+08 2.43917e+08 2.37268e+08
threshold=0 6.5000000000000009 1 223.50000000000003 2 2010.5000000000002 3 15.008333333333335 36402.000000000007 4.5000000000000009 2006.5000000000002 4 26.550000000000004 3.5000000000000004 76.500000000000014 28.500000000000004 21.500000000000004 19.500000000000004 2011.5000000000002 7.5000000000000009 20.500000000000004 18.574999999999999 67.500000000000014 20.350000000000005 18.500000000000004 7.5000000000000009 63.500000000000007 2007.5000000000002 19.500000000000004 10.500000000000002
decision_type=9 2 9 2 9 2 9 2 2 2 2 9 2 2 2 2 2 2 2 2 2 2 2 2 2 2 2 2 2 2
left_child=1 3 6 -1 5 27 -2 -5 14 -9 -8 21 29 -6 24 16 17 18 -15 22 -19 -12 -20 -23 25 -4 -10 -3 -18 -11
right_child=2 4 8 7 13 -7 10 9 26 12 11 -13 -14 15 -16 -17 28 20 19 -21 -22 23 -24 -25 -26 -27 -28 -29 -30 -31
leaf_value=2344.6512834821428 235.91737541088389 1557.7903583233174 -377.96379842376712 1871.4471421595983 835.41369434703483 554.05256347656257 -349.96199735340321 920.37282562255859 44.560144985423371 1405.9185925292968 131.49300925937402 -130.8195846453832 1147.3407794952393 265.29974626597794 -566.43561291571484 836.31276925893928 -41.342211753443671 1062.9702927809496 546.00107975006108 867.37718185424808 489.11418947966206 -372.90155029296875 83.112089538574224 11.959577498937909 -367.25797831250475 -574.54546597129422 -331.8193161586546 1129.6629780466963 365.86839872996012 1872.282817586263
leaf_weight=28 111 26 200 35 33 38 57 23 34 20 197 389 24 101 271 26 38 39 40 40 23 27 22 76 385 247 53 41 24 24
leaf_count=28 111 26 200 35 33 38 57 23 34 20 197 389 24 101 271 26 38 39 40 40 23 27 22 76 385 247 53 41 24 24
internal_value=0 847.585 -269.971 1642.26 615.6 938.024 -30.9736 1486.18 -440.396 1338 -73.2806 -51.4547 1479.25 490.876 -464.555 472.573 443.652 520.243 419.502 572.192 850.088 54.0152 381.75 -88.9263 -431.37 -486.589 -184.728 1295.8 116.288 1660.3
internal_weight=0 645 2047 154 491 105 857 126 1190 91 746 689 68 386 1103 353 327 265 203 102 62 300 62 103 832 447 87 67 62 44
internal_count=2692 645 2047 154 491 105 857 126 1190 91 746 689 68 386 1103 353 327 265 203 102 62 300 62 103 832 447 87 67 62 44
cat_boundaries=0 2 4 6 8 10
cat_threshold=3222275136 70785 44048544 209995780 0 66560 33554432 134217728 0 75497476
is_linear=0
shrinkage=0.1


Tree=4
num_leaves=31
num_cat=3
split_feature=9 4 4 2 12 8 4 21 7 6 12 9 0 12 6 3 13 3 3 3 6 8 20 15 7 15 8 8 6 9
split_gain=5.04108e+10 1.10144e+10 5.45166e+09 3.07986e+09 2.31079e+09 7.91151e+08 6.92392e+08 6.17288e+08 5.78215e+08 4.4881e+08 4.92638e+08 4.16841e+08 4.08123e+08 4.00049e+08 3.41145e+08 4.18815e+08 4.91821e+08 3.24021e+08 7.34802e+08 3.20564e+08 3.18123e+08 2.91891e+08 2.66795e+08 2.80855e+08 2.53376e+08 2.47365e+08 2.33484e+08 2.26741e+08 2.27485e+08 3.09498e+08
threshold=38595.000000000007 0 1 19.500000000000004 2009.5000000000002 223.50000000000003 2 15.500000000000002 47.500000000000007 15.65 2010.5000000000002 23230.500000000004 26.500000000000004 2013.5000000000002 11.550000000000002 28.500000000000004 10.500000000000002 21.500000000000004 19.500000000000004 20.500000000000004 17.050000000000004 236.50000000000003 18.574999999999999 4.5000000000000009 76.500000000000014 5.5000000000000009 106.50000000000001 453.50000000000006 16.350000000000005 30211.000000000004
decision_type=2 9 9 2 2 2 9 2 2 2 2 2 2 2 2 2 2 2 2 2 2 2 2 2 2 2 2 2 2 2
left_child=2 3 6 5 -5 -2 22 12 -6 -7 -11 24 20 -14 -9 16 17 18 -16 -20 -3 -13 26 -24 25 -4 -1 28 29 -28
right_child=1 7 11 4 8 9 -8 14 -10 10 -12 21 13 -15 15 -17 -18 -19 19 -21 -22 -23 23 -25 -26 -27 27 -29 -30 -31
leaf_value=-212.69315651603367 1292.0554415795114 690.10713889382112 -463.63590783771718 2108.3131152343753 1652.4002633231028 335.3281364440918 -155.57214494793206 87.702448962983638 1112.4588566499599 1121.5009785313759 537.22906087239585 -446.06666851043701 -276.29717617797854 274.06130741664344 361.97722478916774 914.71719519573708 853.68518948872884 175.37483118633892 971.01064588274278 483.87565931840373 273.54772800445556 -219.67162550245013 -360.16418019612632 -3.7185445876348591 -556.719224058907 -309.79263259688423 80.658141534978697 -48.704358945574086 100.53133626125828 581.87282442365381
leaf_weight=23 31 22 475 50 28 24 521 21 68 31 27 96 25 28 152 23 30 43 35 22 110 140 30 84 212 134 22 56 101 28
leaf_count=23 31 22 475 50 28 24 521 21 68 31 27 96 25 28 152 23 30 43 35 22 110 140 30 84 212 134 22 56 101 28
internal_value=0 683.669 -273.915 1207.08 1557.06 861.711 -83.5713 387.182 1269.94 699.019 849.512 -424.874 248.859 14.4582 477.556 504.398 470.932 425.366 476.8 782.994 342.974 -311.765 26.7907 -97.52 -462.562 -429.785 89.5704 123.155 186.891 361.338
internal_weight=0 770 1922 259 146 113 865 511 96 82 58 1057 185 53 326 305 282 252 209 57 132 236 344 114 821 609 230 207 151 50
internal_count=2692 770 1922 259 146 113 865 511 96 82 58 1057 185 53 326 305 282 252 209 57 132 236 344 114 821 609 230 207 151 50
cat_boundaries=0 2 4 6
cat_threshold=0 66561 44146849 109447168 33554432 75497472
is_linear=0
shrinkage=0.1


Tree=5
num_leaves=31
num_cat=4
split_feature=9 4 4 2 12 8 3 14 4 4 0 6 9 6 3 6 14 2 1 7 20 8 10 12 12 3 3 7 8 15
split_gain=4.08404e+10 8.92166e+09 4.47213e+09 2.49469e+09 1.87174e+09 6.40832e+08 5.40766e+08 8.14415e+08 5.33074e+08 5.025e+08 6.21779e+08 3.74168e+08 3.41021e+08 3.19773e+08 3.31475e+08 4.26552e+08 3.21437e+08 3.30932e+08 2.86567e+08 2.61945e+08 4.36444e+08 2.52505e+08 3.3064e+08 2.30221e+08 2.19997e+08 2.40748e+08 7.36936e+08 2.05545e+08 2.03993e+08 1.97935e+08
threshold=38595.000000000007 0 1 19.500000000000004 2009.5000000000002 223.50000000000003 20.500000000000004 10.500000000000002 2 3 26.500000000000004 19.850000000000005 23230.500000000004 11.550000000000002 28.500000000000004 13.950000000000001 6.5000000000000009 17.500000000000004 1.0000000180025095e-35 47.500000000000007 15.091666666666669 238.50000000000003 1.5000000000000002 2013.5000000000002 2015.5000000000002 21.500000000000004 19.500000000000004 75.500000000000014 236.50000000000003 5.5000000000000009
decision_type=2 9 9 2 2 2 2 2 9 9 2 2 2 2 2 2 2 2 2 2 2 2 2 2 2 2 2 2 2 2
left_child=2 3 8 5 -5 -2 7 -6 24 10 21 -7 27 -11 15 -15 17 -17 19 -18 -21 -3 -23 -9 25 26 -1 29 -14 -4
right_child=1 9 12 4 6 11 -8 23 -10 13 -12 -13 28 14 -16 16 18 -19 -20 20 -22 22 -24 -25 -26 -27 -28 -29 -30 -31
leaf_value=-23.953618719411452 1162.8498960433469 141.16533898247613 -415.92953920446593 1897.4817958984377 1831.3800537109375 404.81790208082936 773.08164672851569 886.76385977608834 -136.53188819302963 96.075475839468155 -152.05101828802199 832.55194041119069 -390.64377308639831 827.29707891845703 810.38915905761723 363.61076986139472 100.09448130082112 906.11165814607057 600.38340582596629 664.1718389975058 267.13955678072847 611.49098221216445 119.32502833775112 1330.9846807861329 298.82892823395906 -168.47460087862885 464.90259051852757 -497.24589137274791 -206.06923801224809 -276.31726016704852
leaf_weight=215 31 54 464 50 20 39 28 28 510 26 42 43 102 25 25 22 49 23 38 37 110 39 21 20 27 66 36 227 145 130
leaf_count=215 31 54 464 50 20 39 28 28 510 26 42 43 102 25 25 22 49 23 38 37 110 39 21 20 27 66 36 227 145 130
internal_value=0 615.302 -246.605 1086.37 1401.35 775.54 1142.95 1295.25 -72.2929 348.464 166.209 629.117 -381.738 421.806 460.368 431.583 396.125 640.889 349.055 300.328 367.073 298.043 439.233 1071.86 24.1116 1.47363 46.1612 -416.306 -282.29 -385.375
internal_weight=0 770 1922 259 146 113 96 68 854 511 156 82 1068 355 329 304 279 45 234 196 147 114 60 48 344 317 251 821 247 594
internal_count=2692 770 1922 259 146 113 96 68 854 511 156 82 1068 355 329 304 279 45 234 196 147 114 60 48 344 317 251 821 247 594
cat_boundaries=0 2 4 6 8
cat_threshold=0 66561 44146849 75892736 33554432 75497472 1024 134234116
is_linear=0
shrinkage=0.1


Tree=6
num_leaves=31
num_cat=4
split_feature=9 4 4 2 12 12 6 3 15 17 21 2 3 13 8 13 14 1 0 2 4 7 9 3 3 0 15 9 14 0
split_gain=3.30868e+10 7.22654e+09 3.63622e+09 2.0207e+09 1.51611e+09 5.42986e+08 5.41865e+08 4.68636e+08 4.12286e+08 4.4554e+08 4.04358e+08 4.26143e+08 4.6476e+08 3.82053e+08 3.66433e+08 3.44653e+08 3.00643e+08 2.86725e+08 2.85446e+08 2.80093e+08 2.7216e+08 2.56796e+08 2.46694e+08 2.51006e+08 1.3422e+09 2.3008e+08 2.21042e+08 2.1742e+08 1.96296e+08 2.6636e+08
threshold=38595.000000000007 0 1 19.500000000000004 2009.5000000000002 2010.5000000000002 15.350000000000003 8.5000000000000018 4.5000000000000009 2 18.500000000000004 13.500000000000002 18.500000000000004 9.5000000000000018 137.50000000000003 10.500000000000002 6.5000000000000009 1.0000000180025095e-35 12.500000000000002 10.500000000000002 3 57.500000000000007 20298.500000000004 20.500000000000004 19.500000000000004 30.500000000000004 2.5000000000000004 30211.000000000004 18.500000000000004 22.500000000000004
decision_type=2 9 9 2 2 2 2 2 2 1 2 2 2 2 2 2 2 2 2 2 9 2 2 2 2 2 2 2 2 2
left_child=2 3 8 5 -5 6 -2 -6 9 19 11 13 -13 14 -3 22 -12 18 -16 -1 26 -9 -10 24 -24 -20 -4 -17 29 -18
right_child=1 10 20 4 7 -7 -8 21 15 -11 16 12 -14 -15 17 27 28 -19 25 -21 -22 -23 23 -25 -26 -27 -28 -29 -30 -31
leaf_value=-205.14917721218535 408.27899658203125 -140.39618287519974 -425.41636013454865 1707.7336230468752 1333.9307846531724 390.02603472659462 1016.1056412020597 1101.8728994864005 -156.17881442636684 20.610598849166525 756.97418908013242 -386.2982614898682 260.45073828125004 536.18472065172705 353.73557678222659 51.91927486419678 411.56581320232817 516.356566065008 18.823781095232285 -622.74629979626889 -377.40118048281283 693.8996792263456 -28.293102208802622 -124.20644408139316 638.25971966911766 396.22305648440408 -223.50485524959615 419.1806023209183 497.16144751471438 -43.59210601806641
leaf_weight=36 20 22 63 50 33 38 55 27 138 44 27 20 25 57 95 40 36 44 70 29 730 36 271 121 34 21 389 27 74 20
leaf_count=36 20 22 63 50 33 38 55 27 138 44 27 20 25 57 95 40 36 44 70 29 730 36 271 121 34 21 389 27 74 20
internal_value=0 553.772 -222.015 977.731 1261.21 697.986 854.019 1028.65 -44.9223 -225.121 313.618 260.514 -26.9933 302.384 249.501 -14.5065 453.33 286.795 232.49 -391.462 -329.716 868.745 -39.9792 -2.33704 46.0111 105.916 -246.2 199.92 390.265 249.009
internal_weight=0 770 1922 259 146 113 75 96 740 109 511 354 45 309 252 631 157 230 186 65 1182 63 564 426 305 91 452 67 130 56
internal_count=2692 770 1922 259 146 113 75 96 740 109 511 354 45 309 252 631 157 230 186 65 1182 63 564 426 305 91 452 67 130 56
cat_boundaries=0 2 4 5 7
cat_threshold=0 66561 44048545 75759616 1 4689920 33688386
is_linear=0
shrinkage=0.1


Tree=7
num_leaves=31
num_cat=4
split_feature=4 2 4 12 4 3 2 0 2 12 4 9 14 3 3 13 11 12 20 0 20 14 9 12 13 12 12 0 2 8
split_gain=2.69075e+10 5.91964e+09 3.23954e+09 1.35019e+09 7.23607e+08 5.43191e+08 5.25008e+08 4.37854e+08 4.69448e+08 4.83017e+08 4.3476e+08 3.70548e+08 3.50119e+08 3.4545e+08 4.04923e+08 3.22389e+08 3.13501e+08 2.72664e+08 2.7332e+08 2.63222e+08 2.39964e+08 2.23577e+08 2.13886e+08 3.19635e+08 2.67591e+08 1.92526e+08 2.65511e+08 2.16415e+08 2.15821e+08 3.30781e+08
threshold=0 19.500000000000004 1 2010.5000000000002 2 19.500000000000004 5.5000000000000009 26.500000000000004 18.500000000000004 2009.5000000000002 3 23230.500000000004 12.500000000000002 20.500000000000004 9.5000000000000018 6.5000000000000009 1.5000000000000002 2006.5000000000002 19.058333333333334 31.500000000000004 16.075000000000003 15.500000000000002 48426.000000000007 2010.5000000000002 7.5000000000000009 2011.5000000000002 2014.5000000000002 7.5000000000000009 13.500000000000002 451.50000000000006
decision_type=9 2 9 2 9 2 2 2 2 2 9 2 2 2 2 2 2 2 2 2 2 2 2 2 2 2 2 2 2 2
left_child=1 4 10 15 7 12 16 8 9 -1 -2 -4 -5 14 -10 -3 20 -12 25 -9 -6 -22 23 -8 -25 27 -27 -19 -29 -30
right_child=2 3 11 5 6 -7 22 19 13 -11 17 -13 -14 -15 -16 -17 -18 18 -20 -21 21 -23 -24 24 -26 26 -28 28 29 -31
leaf_value=986.14935709635415 -115.21195361176954 1684.4543002424571 -337.62155166819929 1349.7170782470703 470.8152422527935 480.98679530702788 505.56539709472656 101.17199633916221 348.5025967541863 525.15217902951133 -206.20006038584609 -200.02213609144093 835.09705802721862 133.59031963348389 862.0301837376187 1236.434935506185 582.64775944462531 -63.852521582210763 -108.98916165937078 556.56999317515988 -76.095564715067539 308.20654977938028 -95.723024525361907 -39.067796185331531 327.14383516311648 -100.64520171725232 159.94202588025263 93.896801746913368 503.01430974324552 43.305430984497072
leaf_weight=51 448 29 831 20 43 29 25 30 34 41 47 256 39 24 28 36 54 34 88 22 24 41 34 53 32 92 68 70 45 24
leaf_count=51 448 29 831 20 43 29 25 30 34 41 47 256 39 24 28 36 54 34 88 22 24 41 34 53 32 92 68 70 45 24
internal_value=0 534.292 -185.855 1090.67 385.443 835.361 254.116 526.236 623.691 780.705 -45.7409 -302.433 1009.54 455.722 580.418 1436.32 385.915 21.7804 47.7492 293.84 287.548 166.31 123.49 191.247 98.8001 89.1696 10.1044 162.293 217.61 343.116
internal_weight=0 689 2003 153 536 88 306 230 178 92 916 1087 59 86 62 65 162 468 421 52 108 65 144 110 85 333 160 173 139 69
internal_count=2692 689 2003 153 536 88 306 230 178 92 916 1087 59 86 62 65 162 468 421 52 108 65 144 110 85 333 160 173 139 69
cat_boundaries=0 2 4 6 8
cat_threshold=3222275072 134288513 44114145 75909124 0 70656 10551457 133120
is_linear=0
shrinkage=0.1


Tree=8
num_leaves=31
num_cat=6
split_feature=9 4 4 2 12 14 20 8 16 4 10 0 6 14 4 17 11 7 6 12 3 3 12 13 3 3 3 2 12 0
split_gain=2.18266e+10 4.73796e+09 2.45818e+09 1.34968e+09 1.07096e+09 4.10976e+08 4.92014e+08 3.97686e+08 3.64027e+08 3.3425e+08 3.14387e+08 3.01325e+08 2.92333e+08 3.09944e+08 2.85386e+08 2.83575e+08 2.51975e+08 2.43528e+08 2.41736e+08 2.78326e+08 2.19629e+08 1.04042e+09 4.37902e+08 5.43099e+08 2.99664e+08 2.18694e+08 2.14926e+08 1.99497e+08 1.99173e+08 1.98543e+08
threshold=38595.000000000007 0 1 19.500000000000004 2008.5000000000002 11.500000000000002 16.075000000000003 223.50000000000003 2 3 2.5000000000000004 26.500000000000004 11.550000000000002 3.5000000000000004 4 5 1.5000000000000002 76.500000000000014 15.65 2010.5000000000002 18.500000000000004 20.500000000000004 2011.5000000000002 8.5000000000000018 28.500000000000004 6.5000000000000009 18.500000000000004 10.500000000000002 2011.5000000000002 7.5000000000000009
decision_type=2 9 9 2 2 2 2 2 9 9 2 2 2 2 9 1 2 2 2 2 2 2 2 2 2 2 2 2 2 2
left_child=2 3 8 7 -5 6 -6 -2 14 11 12 29 -11 -14 -1 27 -12 -4 -9 -20 22 -22 25 -24 28 -15 -7 -10 -23 -3
right_child=1 9 17 4 5 26 -8 18 15 10 16 -13 13 20 -16 -17 -18 -19 19 -21 21 24 23 -25 -26 -27 -28 -29 -30 -31
leaf_value=30.961129780331511 869.1806955645161 32.262215874411844 -254.79453560271577 1489.2404725770693 1472.3317565917969 831.49638790208473 770.89444835662846 181.80933265686036 -191.11584996932595 -6.7544157361984247 -27.786068884531659 -140.13449818823074 758.465602075486 292.22587947300502 -94.255423558773685 -21.750143964900531 359.49282520839148 -364.62770575342574 763.61060515372992 324.44486615216294 956.95681137577185 392.4080858403986 272.7587268066406 868.98272871537654 588.80539913177495 -50.056659088134772 442.49032875061039 -522.52021233053767 10.492854160732694 310.01470853744013
leaf_weight=421 31 44 809 37 20 49 20 24 39 20 42 36 21 35 307 43 28 269 31 27 31 22 50 22 22 40 20 34 36 62
leaf_count=421 31 44 809 37 20 49 20 24 39 20 42 36 21 35 307 43 28 269 31 27 31 22 50 22 22 40 20 34 36 62
internal_value=0 449.608 -180.491 792.935 1024.38 866.584 1121.61 564.07 -49.9873 255.083 309.506 102.603 362.555 389.029 -22.4048 -207.575 127.125 -279.608 448.724 559.171 358.959 465.136 278.784 454.938 274.555 109.675 718.741 -345.469 155.357 194.721
internal_weight=0 770 1922 259 146 109 40 113 844 511 369 142 299 279 728 116 70 1078 82 58 258 111 147 72 80 75 69 73 58 106
internal_count=2692 770 1922 259 146 109 40 113 844 511 369 142 299 279 728 116 70 1078 82 58 258 111 147 72 80 75 69 73 58 106
cat_boundaries=0 2 4 5 7 9 10
cat_threshold=0 66561 44114081 75892736 104 64 134234116 41951232 75497472 1
is_linear=0
shrinkage=0.1


Tree=9
num_leaves=31
num_cat=4
split_feature=4 2 4 12 4 2 3 12 9 0 2 12 10 4 15 12 13 13 9 15 2 1 12 3 0 0 7 15 0 3
split_gain=1.77075e+10 3.83213e+09 2.11755e+09 9.29031e+08 5.09614e+08 4.22878e+08 4.14064e+08 3.50556e+08 3.58052e+08 3.24634e+08 3.22892e+08 3.25216e+08 3.16904e+08 2.74833e+08 3.04672e+08 2.58442e+08 2.42095e+08 2.35118e+08 2.29956e+08 2.29511e+08 2.51516e+08 2.46759e+08 3.13034e+08 2.12173e+08 2.00916e+08 1.85969e+08 1.85725e+08 2.03688e+08 1.85492e+08 1.76562e+08
threshold=0 19.500000000000004 1 2010.5000000000002 2 7.5000000000000009 8.5000000000000018 2006.5000000000002 41469.500000000007 26.500000000000004 18.500000000000004 2009.5000000000002 1.0000000180025095e-35 3 2.5000000000000004 2014.5000000000002 6.5000000000000009 10.500000000000002 36402.000000000007 4.5000000000000009 5.5000000000000009 1.0000000180025095e-35 2014.5000000000002 20.500000000000004 31.500000000000004 26.500000000000004 44.500000000000007 4.5000000000000009 2.5000000000000004 8.5000000000000018
decision_type=9 2 9 2 9 2 2 2 2 2 2 2 2 9 2 2 2 2 2 2 2 2 2 2 2 2 2 2 2 2
left_child=1 4 7 16 9 19 -5 -2 17 10 11 -1 -12 -4 28 -8 -3 26 -16 -6 21 22 29 -14 -11 -10 -9 -28 -15 -21
right_child=2 3 13 6 5 -7 15 8 25 24 12 -13 23 14 18 -17 -18 -19 -20 20 -22 -23 -24 -25 -26 -27 27 -29 -30 -31
leaf_value=812.67729994829961 -264.7024412991708 1382.4769034550109 -307.16407661453849 994.9983109085648 9.6941311106962331 -121.19513373094446 380.88007957644578 67.630726972307485 273.77976620386517 61.533057683308918 701.98857394131755 434.40652331840704 384.78610346750781 -83.827517409551717 -188.88349052274461 819.3499343872071 994.23776279025606 141.90373303510142 -3.6458864713969983 15.265713174002512 167.4622205583176 682.18968256170103 601.4311759159483 -8.0344064331054685 459.39886190241032 -39.901783017758973 -234.2735270606147 -52.198781347616197 -415.71921772676365 320.19751461481644
leaf_weight=51 57 29 441 27 34 34 41 105 63 30 22 41 44 21 567 20 36 69 76 28 101 22 29 20 22 27 72 419 85 59
leaf_count=51 57 29 441 27 34 34 41 105 63 30 22 41 44 21 567 20 36 69 76 28 101 22 29 20 22 27 72 419 85 59
internal_value=0 432.954 -150.977 880.735 313.436 204.705 668.955 -25.2599 -7.51738 430.932 513.881 644.1 374.577 -235.835 -190.343 524.641 1167.45 -32.8517 -166.989 252.791 287.374 375.136 316.902 262.03 229.861 179.675 -53.0835 -78.8981 -349.967 222.059
internal_weight=0 690 2002 153 537 307 88 812 755 230 178 92 86 1190 749 61 65 665 643 273 239 138 116 64 52 90 596 491 106 87
internal_count=2692 690 2002 153 537 307 88 812 755 230 178 92 86 1190 749 61 65 665 643 273 239 138 116 64 52 90 596 491 106 87
cat_boundaries=0 2 4 6 8
cat_threshold=3255828480 134288513 10495200 75778052 0 70656 67108886 536911904
is_linear=0
shrinkage=0.1


Tree=10
num_leaves=31
num_cat=4
split_feature=4 2 4 12 7 4 2 12 4 3 3 6 9 2 12 8 12 20 6 0 20 2 15 2 1 12 2 7 20 2
split_gain=1.43514e+10 3.10403e+09 1.7294e+09 7.77447e+08 4.55295e+08 4.12788e+08 3.42531e+08 3.22612e+08 3.21075e+08 2.68186e+08 9.56364e+08 2.81567e+08 2.45382e+08 2.45135e+08 2.47527e+08 2.22235e+08 2.18735e+08 2.08241e+08 2.34823e+08 1.96018e+08 1.94915e+08 1.86128e+08 1.85904e+08 2.03728e+08 1.99874e+08 2.53557e+08 1.74482e+08 1.71096e+08 3.76002e+08 1.71059e+08
threshold=0 19.500000000000004 1 2009.5000000000002 48.500000000000007 2 7.5000000000000009 2006.5000000000002 3 20.500000000000004 18.500000000000004 26.750000000000004 36402.000000000007 17.500000000000004 2012.5000000000002 429.50000000000006 2009.5000000000002 15.558333333333335 26.550000000000004 27.500000000000004 19.058333333333334 18.500000000000004 4.5000000000000009 5.5000000000000009 1.0000000180025095e-35 2014.5000000000002 6.5000000000000009 44.500000000000007 15.558333333333335 17.500000000000004
decision_type=9 2 9 2 2 9 2 2 9 2 2 2 2 2 2 2 2 2 2 2 2 2 2 2 2 2 2 2 2 2
left_child=1 5 7 -3 -5 9 22 -2 20 10 11 13 21 16 -15 -14 -1 -6 -19 -10 27 26 -7 24 25 -24 -4 28 -9 -11
right_child=2 3 12 4 17 6 -8 8 19 29 -12 -13 15 14 -16 -17 -18 18 -20 -21 -22 -23 23 -25 -26 -27 -28 -29 -30 -31
leaf_value=651.00976078428084 -220.70285510108585 1106.8196399395283 -197.03758900098961 957.54512878417972 219.42510467529297 8.7247179816750915 -109.07562076344209 79.529364157737575 -35.606973849963346 429.90454477770572 1105.5585960751489 670.80896261709711 -223.81209660019988 18.809341731824372 453.43779464721683 95.860122715343138 242.88553667068481 779.67998840332029 343.68122834705173 -190.37254533587762 -83.229823515686803 -191.05156480698116 199.85268827416431 150.71599644387123 613.97069954438643 541.28805752458254 -318.12667205646005 51.542321799614221 597.21793792724611 114.12884662264869
leaf_weight=29 84 52 179 30 20 34 34 47 359 29 21 27 43 38 20 44 24 30 21 106 79 466 87 101 22 29 355 220 20 42
leaf_count=29 84 52 179 30 20 34 34 47 359 29 21 27 43 38 20 44 24 30 21 106 79 466 87 101 22 29 355 220 20 42
internal_value=0 389.658 -136.032 792.661 630.916 282.092 184.234 -33.573 -15.0614 387.839 476.859 381.188 -221.186 310.739 168.681 -62.1388 466.199 492.904 600.151 -69.3945 54.3787 -237.235 227.512 258.637 337.622 285.212 -277.537 94.1517 234.063 243.108
internal_weight=0 690 2002 153 101 537 307 915 831 230 159 138 1087 111 58 87 53 71 51 465 366 1000 273 239 138 116 534 287 67 71
internal_count=2692 690 2002 153 101 537 307 915 831 230 159 138 1087 111 58 87 53 71 51 465 366 1000 273 239 138 116 534 287 67 71
cat_boundaries=0 2 4 6 8
cat_threshold=3255828480 134288513 10560737 75909124 0 70656 1088 75497476
is_linear=0
shrinkage=0.1


Tree=11
num_leaves=31
num_cat=2
split_feature=9 4 4 2 12 14 20 3 3 3 3 3 12 10 12 3 13 13 12 7 14 15 3 3 3 3 3 6 0 13
split_gain=1.17226e+10 2.49531e+09 1.3384e+09 7.68076e+08 6.34417e+08 3.18518e+08 3.66895e+08 2.76171e+08 6.0656e+08 5.15597e+08 6.42313e+08 6.40348e+08 4.03773e+08 3.94743e+08 3.2117e+08 3.11173e+08 2.82386e+08 2.69362e+08 2.60572e+08 2.55277e+08 2.31525e+08 2.03668e+08 2.01115e+08 2.34198e+08 6.81398e+08 3.16876e+08 1.88923e+08 1.72767e+08 1.72706e+08 1.70916e+08
threshold=38595.000000000007 0 1 19.500000000000004 2008.5000000000002 11.500000000000002 16.075000000000003 2.5000000000000004 8.5000000000000018 21.500000000000004 19.500000000000004 28.500000000000004 2009.5000000000002 1.0000000180025095e-35 2012.5000000000002 12.500000000000002 7.5000000000000009 4.5000000000000009 2010.5000000000002 75.500000000000014 19.500000000000004 2.5000000000000004 2.5000000000000004 17.500000000000004 20.500000000000004 19.500000000000004 28.500000000000004 20.950000000000003 11.500000000000002 6.5000000000000009
decision_type=2 9 9 2 2 2 2 2 2 2 2 2 2 2 2 2 2 2 2 2 2 2 2 2 2 2 2 2 2 2
left_child=2 3 19 17 -5 6 -6 13 28 10 14 20 -12 -3 15 -10 -16 -2 -19 -1 -11 -21 -4 -24 25 -25 -26 -23 -9 -14
right_child=1 7 22 4 5 -7 -8 8 9 11 12 -13 29 -15 16 -17 -18 18 -20 21 -22 27 23 24 26 -27 -28 -29 -30 -31
leaf_value=6.4939594183036746 115.57521089199932 50.880378650483635 -97.610232604304457 1110.2740829880174 1158.4133988952638 500.88339147153113 552.69498411178597 76.390536308288574 268.85790110996794 -209.17538018477592 796.72354395249317 376.89222968274902 566.28375642195988 593.70663328428532 190.14134304648951 -132.72953237045644 640.32938371138152 614.43603994804516 254.19995968726377 -337.96062380472819 137.890132522583 -206.85479449371792 -263.04732031296282 -89.578414585113535 -277.95561827005554 243.79269637543223 -79.81590547723286 -6.3968434675534569 -191.8648007074992 208.90057039260864
leaf_weight=556 25 21 158 37 20 69 20 48 35 57 34 44 23 37 38 43 22 57 31 36 29 67 544 75 261 46 59 120 48 32
leaf_count=556 25 21 158 37 20 69 20 48 35 57 34 44 23 37 38 43 22 57 31 36 29 67 544 75 261 46 59 120 48 32
internal_value=0 329.378 -132.395 578.646 752.488 631.038 855.554 188.033 165.407 225.413 316.358 66.6083 525.82 397.166 181.27 47.47 355.21 405.243 487.535 -29.3826 -92.1417 -120.15 -200.589 -219.144 -164.987 37.1577 -241.424 -78.2187 -57.7371 358.352
internal_weight=0 770 1922 259 146 109 40 511 453 357 227 130 89 58 138 78 60 113 88 779 86 223 1143 985 441 121 320 187 96 55
internal_count=2692 770 1922 259 146 109 40 511 453 357 227 130 89 58 138 78 60 113 88 779 86 223 1143 985 441 121 320 187 96 55
cat_boundaries=0 2 4
cat_threshold=0 66561 44048545 75761664
is_linear=0
shrinkage=0.1


Tree=12
num_leaves=31
num_cat=3
split_feature=4 2 4 12 3 3 3 3 3 8 13 4 8 3 3 2 3 7 3 2 3 15 13 0 2 9 0 0 13 0
split_gain=9.6871e+09 1.85714e+09 1.17676e+09 5.31521e+08 3.52157e+08 2.53459e+08 5.29167e+08 7.82196e+08 8.04981e+08 3.40705e+08 2.71392e+08 2.50916e+08 2.47113e+08 2.39891e+08 1.15308e+09 3.12276e+08 3.11625e+08 3.51516e+08 2.25464e+08 3.10611e+08 2.21069e+08 1.96274e+08 1.94779e+08 1.90006e+08 1.87332e+08 2.25813e+08 1.81997e+08 2.69651e+08 2.04477e+08 1.71756e+08
threshold=0 19.500000000000004 1 2010.5000000000002 19.500000000000004 28.500000000000004 21.500000000000004 19.500000000000004 20.500000000000004 310.50000000000006 9.5000000000000018 2 322.50000000000006 17.500000000000004 20.500000000000004 28.500000000000004 2.5000000000000004 49.500000000000007 2.5000000000000004 14.500000000000002 28.500000000000004 2.5000000000000004 8.5000000000000018 26.500000000000004 15.500000000000002 36402.000000000007 26.500000000000004 24.500000000000004 4.5000000000000009 26.500000000000004
decision_type=9 2 9 2 2 2 2 2 2 2 2 9 2 2 2 2 2 2 2 2 2 2 2 2 2 2 2 2 2 2
left_child=1 5 13 -3 12 6 7 9 -9 10 18 -4 -5 16 15 24 17 -2 -1 -20 22 -13 -16 -11 25 -15 27 -23 -28 -18
right_child=2 3 11 4 -6 -7 -8 8 -10 23 -12 21 -14 14 20 -17 29 -19 19 -21 -22 26 -24 -25 -26 -27 28 -29 -30 -31
leaf_value=538.81390214399869 456.21908995888452 856.8890451049806 -230.25633411322133 772.21927120811063 194.49706715550917 490.90778447201376 4.4102398427327474 915.61132302420492 196.24496770586288 165.96868564573109 572.1202012062073 -244.73334816629574 344.78175920758929 158.54865107816809 -209.55252043737306 668.90276877993631 -58.959427881854801 -2.0344249480111261 292.76204460828734 -85.865348612467457 143.76118124825615 -102.59919856359375 29.175375396728516 -94.0172233684643 14.358740608508771 538.39342667152141 -255.18739014738924 160.63140781947547 -10.773217069837782 -230.3989697872064
leaf_weight=22 22 65 437 38 29 38 90 35 28 117 32 129 21 34 108 21 233 70 78 30 35 530 50 37 26 29 143 42 45 78
leaf_count=22 22 65 437 38 29 38 90 35 28 117 32 129 21 34 108 21 233 70 78 30 35 530 50 37 26 29 143 42 45 78
internal_value=0 329.667 -108.538 640.019 479.831 242.512 222.386 274.148 595.893 210.003 311.242 -163.999 620.08 -3.53515 63.6406 322.04 -54.1297 107.548 247.026 187.588 -83.6335 -129.231 -134.006 103.505 240.195 333.398 -111.326 -83.2711 -196.684 -101.957
internal_weight=0 660 2032 153 88 507 469 379 63 316 162 1326 59 706 303 110 403 92 130 108 193 889 158 154 89 63 760 572 188 311
internal_count=2692 660 2032 153 88 507 469 379 63 316 162 1326 59 706 303 110 403 92 130 108 193 889 158 154 89 63 760 572 188 311
cat_boundaries=0 2 4 6
cat_threshold=3255829504 70785 8397024 209993732 30 536911904
is_linear=0
shrinkage=0.1


Tree=13
num_leaves=31
num_cat=4
split_feature=4 2 4 12 4 2 7 12 7 9 3 3 6 13 4 14 6 11 15 11 3 3 13 20 6 3 3 3 20 20
split_gain=7.82159e+09 1.58863e+09 9.13211e+08 4.44706e+08 3.04924e+08 3.1764e+08 2.95503e+08 2.27776e+08 2.1053e+08 2.29692e+08 1.94987e+08 6.19547e+08 2.07379e+08 1.89837e+08 1.72759e+08 1.669e+08 1.50735e+08 2.00398e+08 1.4616e+08 1.54435e+08 2.42184e+08 2.01946e+08 1.85432e+08 1.41593e+08 1.70033e+08 1.34813e+08 1.33898e+08 3.76849e+08 1.32439e+08 2.55529e+08
threshold=0 19.500000000000004 1 2008.5000000000002 2 7.5000000000000009 48.500000000000007 2006.5000000000002 85.500000000000014 36402.000000000007 20.500000000000004 18.500000000000004 26.750000000000004 10.500000000000002 3 10.500000000000002 13.350000000000003 1.5000000000000002 4.5000000000000009 1.5000000000000002 21.500000000000004 8.5000000000000018 5.5000000000000009 15.108333333333336 26.550000000000004 2.5000000000000004 17.500000000000004 20.500000000000004 16.025000000000002 17.075000000000003
decision_type=9 2 9 2 9 2 2 2 2 2 2 2 2 2 9 2 2 2 2 2 2 2 2 2 2 2 2 2 2 2
left_child=1 4 7 -3 10 18 -5 -2 9 25 11 12 16 14 28 -11 -1 -18 -6 21 22 -20 -21 -8 -25 -4 -27 -28 -9 -30
right_child=2 3 8 6 5 -7 23 13 -10 15 -12 -13 -14 -15 -16 -17 17 -19 19 20 -22 -23 -24 24 -26 26 27 -29 29 -31
leaf_value=464.45152567987856 -183.23207820710684 867.49867905836845 -64.292190329233804 723.26451119815601 -23.527013801125918 -153.65839610380286 161.90521027938181 -56.629069602937626 -299.19464850792519 260.24559932890395 174.65795110783108 879.99337245396202 545.52426181369356 133.04388801390868 -72.672422828174803 -75.694696105957036 285.46519380766773 -32.891206970214846 -37.118609619140628 241.62658050060273 29.128778192271358 213.08147198425399 587.68770672659082 592.78149283272876 238.00197608254172 -214.7139383476067 44.509736182954583 -192.78914432891028 274.08080093214909 15.571150459888134
leaf_weight=23 84 39 120 34 34 34 23 133 104 21 71 21 27 83 379 50 58 30 46 32 23 108 30 35 22 441 90 261 48 188
leaf_count=23 84 39 120 34 34 34 23 133 104 21 71 21 27 83 379 50 58 30 46 32 23 108 30 35 22 441 90 261 48 188
internal_value=0 287.581 -100.506 576.017 210.756 130.327 476.3 -26.0182 -162.399 -149.578 299.427 373.973 296.969 -10.4396 -26.3609 23.6679 236.51 176.935 170.469 198.067 306.266 138.346 409.076 371.34 455.849 -163.066 -178.031 -131.943 22.5636 68.1494
internal_weight=0 690 2002 153 537 307 114 915 1087 983 230 159 138 831 748 71 111 88 273 239 85 154 62 80 57 912 792 351 369 236
internal_count=2692 690 2002 153 537 307 114 915 1087 983 230 159 138 831 748 71 111 88 273 239 85 154 62 80 57 912 792 351 369 236
cat_boundaries=0 2 4 6 8
cat_threshold=3255828480 134288513 10560737 75909124 0 70656 1088 75761668
is_linear=0
shrinkage=0.1


Tree=14
num_leaves=31
num_cat=2
split_feature=4 2 4 12 13 7 3 3 3 3 3 21 2 3 3 3 3 8 8 20 13 3 21 3 8 13 8 12 7 0
split_gain=6.41015e+09 1.2081e+09 7.76388e+08 3.70137e+08 3.38792e+08 2.79384e+08 2.69865e+08 1.06826e+09 4.05231e+08 3.6702e+08 2.82046e+08 2.89594e+08 2.75956e+08 2.20906e+08 3.93764e+08 5.90536e+08 6.0753e+08 2.63952e+08 2.10112e+08 3.73481e+08 2.0664e+08 1.89516e+08 1.84177e+08 1.833e+08 1.61949e+08 1.57301e+08 1.55682e+08 1.52381e+08 1.49477e+08 1.47042e+08
threshold=0 19.500000000000004 1 2010.5000000000002 4.5000000000000009 57.500000000000007 17.500000000000004 20.500000000000004 2.5000000000000004 19.500000000000004 28.500000000000004 23.500000000000004 24.500000000000004 28.500000000000004 21.500000000000004 19.500000000000004 20.500000000000004 310.50000000000006 206.50000000000003 19.041666666666668 7.5000000000000009 1.5000000000000002 18.500000000000004 6.5000000000000009 225.50000000000003 7.5000000000000009 566.50000000000011 2015.5000000000002 86.500000000000014 26.500000000000004
decision_type=9 2 9 2 2 2 2 2 2 2 2 2 2 2 2 2 2 2 2 2 2 2 2 2 2 2 2 2 2 2
left_child=1 13 26 25 -5 -6 8 9 21 -8 11 27 22 14 15 17 -17 18 23 20 -20 -4 -11 -1 -10 -3 -2 -9 -26 -19
right_child=2 3 6 4 5 -7 7 10 24 12 -12 -13 -14 -15 -16 16 -18 29 19 -21 -22 -23 -24 -25 28 -27 -28 -29 -30 -31
leaf_value=307.9328678262645 -175.17181232663245 843.41564601353241 -21.132936654909695 44.891233132102279 799.20284423828127 357.47301592508956 75.502009290530367 -195.40261944375465 -176.37097974564449 410.46871447440913 110.50500225629963 164.89652911802136 697.80156723022469 429.70423592015317 -9.0124768024020732 780.98396702357707 156.04003557477679 129.14662893246381 356.92576781242127 127.82148466564361 752.52862336531928 204.09804533640545 66.866554428980905 -27.846189034951699 -42.457579340034698 531.36303833007821 -18.517082505986309 45.75125867207845 -308.90324508003573 -99.564382259265813
leaf_weight=29 787 35 99 22 21 45 81 207 251 39 61 30 20 38 90 35 28 117 31 42 23 60 26 37 249 30 69 30 23 37
leaf_count=29 787 35 99 22 21 45 81 207 251 39 61 30 20 38 90 35 28 117 31 42 23 60 26 37 249 30 69 30 23 37
internal_value=0 268.069 -88.3935 518.416 384.74 498.023 -34.875 21.1142 -75.9415 227.822 -83.5003 -127.824 372.975 197.808 179.019 223.67 503.231 167.935 257.044 351.472 525.423 63.8599 273.028 119.693 -118.443 699.391 -160.667 -164.877 -64.9879 74.1966
internal_weight=0 660 2032 153 88 66 1176 494 682 166 328 267 85 507 469 379 63 316 162 96 54 159 65 66 523 65 856 237 272 154
internal_count=2692 660 2032 153 88 66 1176 494 682 166 328 267 85 507 469 379 63 316 162 96 54 159 65 66 523 65 856 237 272 154
cat_boundaries=0 2 4
cat_threshold=3255829504 70785 72093982 536912674
is_linear=0
shrinkage=0.1


Tree=15
num_leaves=31
num_cat=5
split_feature=4 4 13 4 6 12 12 14 5 15 8 13 13 14 14 3 6 3 3 3 9 14 0 2 3 9 15 3 7 17
split_gain=5.22834e+09 1.17289e+09 5.59341e+08 5.04267e+08 4.98052e+08 3.78619e+08 3.05325e+08 2.70621e+08 2.61697e+08 2.62387e+08 2.51097e+08 2.12133e+08 2.11781e+08 3.83131e+08 1.99532e+08 2.18042e+08 2.41087e+08 2.04359e+08 4.93416e+08 2.88399e+08 1.95961e+08 2.64857e+08 1.84505e+08 1.82497e+08 1.49563e+08 1.85448e+08 1.46174e+08 1.32954e+08 1.28635e+08 1.27389e+08
threshold=0 1 10.500000000000002 2 16.550000000000004 2011.5000000000002 2008.5000000000002 4.5000000000000009 3 5.5000000000000009 137.50000000000003 5.5000000000000009 7.5000000000000009 9.5000000000000018 21.500000000000004 8.5000000000000018 16.250000000000004 20.500000000000004 18.500000000000004 2.5000000000000004 36402.000000000007 21.500000000000004 10.500000000000002 5.5000000000000009 12.500000000000002 67045.500000000015 4.5000000000000009 28.500000000000004 52.500000000000007 4
decision_type=9 9 2 9 2 2 2 2 9 2 2 2 2 2 2 2 2 2 2 2 2 2 2 2 2 2 2 2 2 1
left_child=1 2 4 26 5 -1 -6 28 -5 10 22 -8 13 -12 17 -16 -17 18 19 -9 -11 -22 -10 -18 25 -21 29 -19 -3 -2
right_child=3 7 -4 8 6 -7 11 14 9 20 12 -13 -14 -15 15 16 23 27 -20 24 21 -23 -24 -25 -26 -27 -28 -29 -30 -31
leaf_value=302.80539140701296 -301.68006221008301 518.97280074409821 807.58211158014115 -186.73279786791122 636.59156646728525 -243.64998045421783 548.99147169783316 285.90458149765476 -22.041837582058378 12.610384580172026 81.439958535300377 262.12908551833209 35.754907834059317 -142.51202203670226 14.332396777470908 565.85610739968047 386.25088721811773 -145.76596069624929 404.08135156631471 -65.094959892946136 68.978145022005648 507.12492523193362 -277.53755717026564 86.886273983546673 -241.26887746175132 268.92050587047231 -127.4614798757822 133.43047777258832 204.63813035011293 -108.71171480325552
leaf_weight=32 100 23 31 102 53 21 37 33 45 130 108 85 304 261 48 22 32 66 44 68 37 22 76 56 30 22 699 23 30 52
leaf_count=32 100 23 31 102 53 21 37 33 45 130 108 85 304 261 48 22 32 66 44 68 37 22 76 56 30 22 699 23 30 52
internal_value=0 221.01 393.833 -87.4089 354.851 86.2853 436.189 124.956 -41.2613 -24.4381 -49.8934 349.128 -26.0485 -76.9651 101.975 192.167 269.768 52.1486 108.965 24.0953 81.2079 232.355 -182.518 195.746 -47.9023 16.5533 -145.083 -73.6141 341.048 -235.665
internal_weight=0 756 259 1936 228 53 175 497 1085 983 794 122 673 369 444 158 110 286 197 153 189 59 121 88 120 90 851 89 53 152
internal_count=2692 756 259 1936 228 53 175 497 1085 983 794 122 673 369 444 158 110 286 197 153 189 59 121 88 120 90 851 89 53 152
cat_boundaries=0 2 4 6 8 9
cat_threshold=3255829568 134288513 0 66561 608964894 536912162 1077936128 8 1
is_linear=0
shrinkage=0.1


Tree=16
num_leaves=31
num_cat=4
split_feature=4 2 4 20 14 12 9 12 5 6 2 3 3 12 20 5 7 3 3 12 9 3 7 3 0 7 12 15 9 13
split_gain=4.30451e+09 8.58366e+08 7.68631e+08 3.75548e+08 4.31644e+08 2.80776e+08 2.08358e+08 2.71921e+08 2.42023e+08 3.26972e+08 2.72652e+08 2.35837e+08 4.46786e+08 2.58134e+08 2.34815e+08 1.92458e+08 1.60067e+08 1.5845e+08 5.93846e+08 2.92576e+08 3.07251e+08 2.35122e+08 1.69298e+08 2.2317e+08 1.79773e+08 1.73055e+08 1.45744e+08 1.41462e+08 1.48476e+08 1.38637e+08
threshold=0 19.500000000000004 1 17.058333333333337 11.500000000000002 2009.5000000000002 48426.000000000007 2009.5000000000002 2 15.65 14.500000000000002 18.500000000000004 21.500000000000004 2010.5000000000002 16.025000000000002 3 62.500000000000007 21.500000000000004 19.500000000000004 2010.5000000000002 37195.000000000007 28.500000000000004 75.500000000000014 2.5000000000000004 11.500000000000002 49.500000000000007 2015.5000000000002 2.5000000000000004 33953.500000000007 7.5000000000000009
decision_type=9 2 9 2 2 2 2 2 9 2 2 2 2 2 2 9 2 2 2 2 2 2 2 2 2 2 2 2 2 2
left_child=1 6 17 4 -3 -6 7 -1 11 -10 -11 13 -13 14 -8 -4 -12 18 22 20 -20 26 23 25 -25 -2 -19 -17 -29 -24
right_child=2 3 15 -5 5 -7 8 -9 9 10 16 12 -14 -15 -16 27 -18 21 19 -21 -22 -23 29 24 -26 -27 -28 28 -30 -31
leaf_value=450.98871500188653 371.4280454438308 891.22094820084112 -72.266472968559768 261.23069407145181 690.86405410766611 244.13013808306528 160.34343555314203 148.87259556696966 -241.32840959821431 305.6152385166713 179.13844314575195 712.72927118937184 141.95664088726045 313.12700225308538 -282.01298072451635 -276.97654740133402 -186.08629737854005 -176.25753198654755 142.52315216064454 102.13530963716053 638.11194237018458 124.75522507826489 -226.88786072049822 84.092323144550988 -74.866524672508248 55.327284072166265 116.22375762939453 -153.89489119439378 13.053463770548504 -1.2455088777362178
leaf_weight=55 29 31 760 57 24 34 28 65 35 42 20 24 32 40 21 81 30 115 22 63 29 48 56 116 184 43 20 475 60 53
leaf_count=55 29 31 760 57 24 34 28 65 35 42 20 24 32 40 21 81 30 115 22 63 29 48 56 116 184 43 20 475 60 53
internal_value=0 250.019 -63.7342 461.638 589.989 428.986 177.579 287.342 129.155 17.4418 117.783 211.229 386.573 124.634 -29.2379 -108.512 -39.9964 15.833 41.0644 246.274 424.329 -65.3382 -7.57168 24.5424 -13.4024 182.646 -132.927 -151.361 -135.172 -117.172
internal_weight=0 538 2154 146 89 58 392 120 272 127 92 145 56 89 49 1376 50 778 595 114 51 183 481 372 300 72 135 616 535 109
internal_count=2692 538 2154 146 89 58 392 120 272 127 92 145 56 89 49 1376 50 778 595 114 51 183 481 372 300 72 135 616 535 109
cat_boundaries=0 2 4 5 6
cat_threshold=1073741824 70785 2190550080 209993732 2 8198
is_linear=0
shrinkage=0.1


Tree=17
num_leaves=31
num_cat=5
split_feature=4 2 4 20 14 12 9 5 4 9 12 5 13 14 2 10 3 20 2 7 3 20 10 20 15 3 12 3 13 14
split_gain=3.48748e+09 6.95276e+08 6.3932e+08 3.04194e+08 3.49632e+08 2.27429e+08 1.76051e+08 1.82317e+08 1.69253e+08 1.6877e+08 2.22971e+08 1.96038e+08 2.99958e+08 3.2698e+08 2.22518e+08 2.5789e+08 3.32022e+08 2.05278e+08 1.9532e+08 1.47603e+08 1.99092e+08 1.66852e+08 1.85001e+08 1.62968e+08 1.6319e+08 1.54525e+08 1.36328e+08 2.44706e+08 1.28057e+08 1.45318e+08
threshold=0 19.500000000000004 1 17.058333333333337 11.500000000000002 2009.5000000000002 39775.000000000007 2 3 48426.000000000007 2007.5000000000002 4 4.5000000000000009 18.500000000000004 18.500000000000004 1.5000000000000002 12.500000000000002 17.025000000000002 14.500000000000002 68.500000000000014 2.5000000000000004 18.591666666666669 1.0000000180025095e-35 16.058333333333337 2.5000000000000004 1.5000000000000002 2010.5000000000002 19.500000000000004 8.5000000000000018 22.500000000000004
decision_type=9 2 9 2 2 2 2 9 9 2 2 9 2 2 2 2 2 2 2 2 2 2 2 2 2 2 2 2 2 2
left_child=1 9 19 4 -3 -6 7 8 -4 10 -1 14 -13 18 17 16 -16 -11 -14 20 25 22 -22 -21 -25 -2 27 -26 29 -28
right_child=2 3 6 -5 5 -7 -8 -9 -10 11 -12 12 13 -15 15 -17 -18 -19 -20 23 21 -23 -24 24 26 -27 28 -29 -30 -31
leaf_value=517.79394249549284 85.969763645981303 802.09885805191539 -11.541078509583194 235.10762644985266 621.77764739990243 219.71711892520682 182.31776754205879 -143.20513759738284 -108.53485563203378 233.05056580021269 186.91857012383483 -232.2319728742327 164.1155100631714 304.39271360609268 208.75540340257726 68.504429880777991 752.14863067106774 -97.482033280765322 -248.19592895507813 -168.71126382906144 208.86845061358287 -85.438776081085209 22.436145429951807 -190.993557188246 26.434530822090483 419.45285332997639 -151.20266050450942 438.4099339076451 200.36143094017393 119.48058607918877
leaf_weight=26 33 31 330 57 24 34 22 622 417 42 94 35 20 45 23 24 22 34 27 73 68 100 245 36 46 24 68 21 21 28
leaf_count=26 33 31 330 57 24 34 22 622 417 42 94 35 20 45 23 24 22 34 27 73 68 100 245 36 46 24 68 21 21 28
internal_value=0 225.017 -57.3941 415.474 530.99 386.087 -97.6181 -102.83 -66.4047 159.822 258.608 116.239 15.6976 111.725 190.106 333.228 474.414 85.1807 -72.7443 16.2511 51.1913 27.0122 62.939 -39.2417 3.71861 226.384 41.8145 155.561 -23.3225 -72.2534
internal_weight=0 538 2154 146 89 58 1391 1369 747 392 120 272 127 92 145 69 45 76 47 763 470 413 313 293 220 57 184 67 117 96
internal_count=2692 538 2154 146 89 58 1391 1369 747 392 120 272 127 92 145 69 45 76 47 763 470 413 313 293 220 57 184 67 117 96
cat_boundaries=0 2 4 5 7 8
cat_threshold=1073741824 70785 2190484576 209977348 6 543359377 2560 2
is_linear=0
shrinkage=0.1


Tree=18
num_leaves=31
num_cat=5
split_feature=4 2 4 0 0 6 7 16 0 9 4 13 12 12 0 6 9 20 10 6 10 9 6 3 8 4 13 6 9 7
split_gain=2.82756e+09 5.63174e+08 5.23204e+08 2.78014e+08 4.91201e+08 3.06866e+08 2.65786e+08 2.34367e+08 2.3875e+08 4.52997e+08 2.50524e+08 2.05004e+08 1.67644e+08 1.77226e+08 1.49653e+08 2.29656e+08 1.43171e+08 2.28837e+08 2.98197e+08 1.63351e+08 1.82974e+08 1.41194e+08 2.01727e+08 1.77981e+08 1.40624e+08 1.26732e+08 1.73536e+08 1.2666e+08 1.25977e+08 1.25767e+08
threshold=0 19.500000000000004 1 26.500000000000004 20.500000000000004 17.350000000000005 69.500000000000014 2 27.500000000000004 44768.500000000007 3 4.5000000000000009 2010.5000000000002 2015.5000000000002 26.500000000000004 15.450000000000001 48426.000000000007 15.575000000000001 1.0000000180025095e-35 20.750000000000004 1.5000000000000002 37195.000000000007 16.850000000000005 19.500000000000004 229.50000000000003 4 8.5000000000000018 22.750000000000004 30211.000000000004 44.500000000000007
decision_type=9 2 9 2 2 2 2 9 2 2 9 2 2 2 2 2 2 2 2 2 2 2 2 2 2 9 2 2 2 2
left_child=1 14 12 4 6 -5 -3 -4 9 10 24 28 21 25 16 -16 -1 18 -18 -19 -21 -2 -23 -24 -9 -14 29 -20 -10 -27
right_child=2 3 7 5 -6 -7 -8 8 11 -11 -12 -13 13 -15 15 -17 17 19 27 20 -22 22 23 -25 -26 26 -28 -29 -30 -31
leaf_value=279.5711262524128 19.402671070211738 500.67915530321079 -196.22400485504571 -127.68663635253907 809.46583620268723 426.26821915626527 128.31484697129991 -63.868129532820696 -168.24809867528177 349.96366173880443 -92.847630134374356 -16.145512111888213 21.074352128538369 151.22644995498658 -183.21059484481813 144.049712301401 588.1233993625641 -157.70979586839678 239.6222654666901 246.89811907923502 -68.904865884780889 348.26250129112833 -40.52507070865272 250.048810773577 65.335218996885359 40.00601050967262 45.123501571019489 -48.309520721435547 -385.98846199281752 -230.67527072277477
leaf_weight=96 169 41 163 20 29 20 36 143 186 28 668 85 136 50 32 65 20 32 50 43 32 39 53 35 205 21 48 22 31 94
leaf_count=96 169 41 163 20 29 20 36 143 186 28 668 85 136 50 32 65 20 32 50 43 32 39 53 35 205 21 48 22 31 94
internal_value=0 202.515 -51.7764 373.927 458.695 149.291 326.587 -83.9171 -68.97 -46.8306 -57.7659 -147.789 23.551 -23.0351 143.839 36.0875 179.27 130.883 246.53 31.4481 112.156 79.2742 158.946 75.0441 11.9011 -52.1758 -107.962 151.643 -199.354 -181.247
internal_weight=0 538 2154 146 106 40 77 1509 1346 1044 1016 302 645 349 392 97 295 199 92 107 75 296 127 88 348 299 163 72 217 115
internal_count=2692 538 2154 146 106 40 77 1509 1346 1044 1016 302 645 349 392 97 295 199 92 107 75 296 127 88 348 299 163 72 217 115
cat_boundaries=0 2 4 5 7 9
cat_threshold=1073741824 70785 2190476352 209977344 4 538980528 19008 2148533248 67371008
is_linear=0
shrinkage=0.1


Tree=19
num_leaves=31
num_cat=4
split_feature=4 2 4 0 0 6 13 3 3 3 3 3 17 15 14 9 9 20 14 7 21 7 12 10 13 17 13 13 7 14
split_gain=2.29408e+09 5.66728e+08 3.32531e+08 2.25191e+08 3.97873e+08 2.48561e+08 2.18126e+08 2.15289e+08 7.3224e+08 3.71614e+08 2.66661e+08 2.50437e+08 1.78134e+08 3.88374e+08 2.50059e+08 1.74761e+08 5.53717e+08 1.72241e+08 1.65299e+08 1.44878e+08 1.43162e+08 1.40194e+08 1.11991e+08 1.10752e+08 1.07548e+08 1.25025e+08 1.27148e+08 1.04344e+08 1.02932e+08 1.00018e+08
threshold=0 19.500000000000004 1 26.500000000000004 20.500000000000004 17.350000000000005 5.5000000000000009 17.500000000000004 20.500000000000004 19.500000000000004 6.5000000000000009 28.500000000000004 2 4.5000000000000009 29.500000000000004 49066.000000000007 36402.000000000007 13.075000000000001 22.500000000000004 69.500000000000014 23.500000000000004 75.500000000000014 2007.5000000000002 3.5000000000000004 7.5000000000000009 3 3.5000000000000004 7.5000000000000009 75.500000000000014 21.500000000000004
decision_type=9 2 9 2 2 2 2 2 2 2 2 2 1 2 2 2 2 2 2 2 2 2 2 2 2 1 2 2 2 2
left_child=1 12 28 4 6 -5 -3 10 9 -9 21 20 13 -1 17 16 -11 -15 -14 -8 -10 -4 -12 29 25 26 -24 -23 -2 -19
right_child=2 3 7 5 -6 -7 19 8 11 15 22 -13 18 14 -16 -17 -18 23 -20 -21 -22 27 24 -25 -26 -27 -28 -29 -30 -31
leaf_value=-273.20416384096501 -93.194963161131653 560.04848910245028 45.564824210026472 -114.91796875 728.51925869645754 383.64138477325446 378.91892076575238 40.663916921152655 -128.44916492291352 186.4359449995325 -201.87624169921878 99.332979358770913 508.15660988943921 -148.2232811854436 462.9830177307129 89.3587149986854 761.57067554180446 101.56765583954405 123.98464063008626 49.883121490478516 66.175336022810512 -201.8226776812939 -4.4948939236727625 -86.21069354248047 -21.20802287002283 70.642436027526855 -196.70468911762481 -7.4658546134607127 -188.13084356708893 222.29846375216167
leaf_weight=27 419 22 258 20 29 20 23 103 268 47 100 78 21 26 20 26 26 279 24 32 44 47 44 25 163 28 158 67 157 91
leaf_count=27 419 22 258 20 29 20 23 103 268 47 100 78 21 26 20 26 26 279 24 32 44 47 44 25 163 28 158 67 157 91
internal_value=0 160.271 -53.0831 336.534 412.826 134.362 293.928 -27.1735 19.1053 173.639 -59.1605 -60.9351 113.231 94.9586 117.499 311.986 391.278 101.087 303.265 187.48 -101.002 4.75765 -107.391 117.497 -83.3487 -127.388 -154.837 -87.5954 -117.04 131.261
internal_weight=0 659 2033 146 106 40 77 1457 592 202 865 390 513 468 441 99 73 421 45 55 312 372 493 395 393 230 202 114 576 370
internal_count=2692 659 2033 146 106 40 77 1457 592 202 865 390 513 468 441 99 73 421 45 55 312 372 493 395 393 230 202 114 576 370
cat_boundaries=0 2 4 5 6
cat_threshold=1074791424 134288513 71303454 536912162 1 1
is_linear=0
shrinkage=0.1


Tree=20
num_leaves=31
num_cat=3
split_feature=4 13 12 3 3 3 2 4 21 14 0 0 6 11 13 17 12 3 8 21 3 3 8 3 15 10 13 3 3 9
split_gain=1.88991e+09 3.32705e+08 4.21493e+08 3.28712e+08 4.04641e+08 4.53578e+08 2.84599e+08 2.82473e+08 2.6344e+08 2.5499e+08 2.2738e+08 2.4952e+08 3.16627e+08 2.26283e+08 2.07577e+08 1.81217e+08 1.46633e+08 1.45715e+08 1.43169e+08 2.19812e+08 1.67419e+08 2.2078e+08 1.38241e+08 1.50926e+08 1.64544e+08 1.50573e+08 1.33197e+08 1.25404e+08 1.62682e+08 1.48861e+08
threshold=0 10.500000000000002 2012.5000000000002 28.500000000000004 20.500000000000004 19.500000000000004 19.500000000000004 1 14.500000000000002 5.5000000000000009 3.5000000000000004 13.500000000000002 19.450000000000003 1.5000000000000002 8.5000000000000018 2 2010.5000000000002 28.500000000000004 155.50000000000003 17.000000000000004 21.500000000000004 18.500000000000004 310.50000000000006 2.5000000000000004 5.5000000000000009 1.0000000180025095e-35 10.500000000000002 2.5000000000000004 1.5000000000000002 20462.000000000004
decision_type=9 2 2 2 2 2 2 9 2 2 2 2 2 2 2 1 2 2 2 2 2 2 2 2 2 2 2 2 2 2
left_child=1 3 8 4 5 6 22 9 -3 15 -11 12 -12 -5 -8 -2 -6 18 19 -9 21 27 23 -1 -25 -24 -13 28 -20 -30
right_child=7 2 -4 13 16 -7 14 17 -10 10 11 26 -14 -15 -16 -17 -18 -19 20 -21 -22 -23 25 24 -26 -27 -28 -29 29 -31
leaf_value=362.47734553019205 45.518065497356915 473.71289756081325 723.94716680617557 611.53278975053263 85.086856452941902 488.80361285739474 347.45646257792436 -294.75817371316856 34.483021799723311 -157.73481347770692 340.78536771138511 -76.365006036024837 22.666171834458865 152.61065608433316 2.9476652725883152 299.95005839579812 -131.20679353986469 73.029674537226839 -96.176368138369398 71.816501653762089 -177.22670335402859 49.949432685906942 -159.56242229288276 141.66219283254523 -173.92040221214296 66.577652817629698 60.657120756261492 -117.54919774904484 -28.954973573270053 334.89388760653412
leaf_weight=24 115 22 21 22 50 36 73 74 36 125 36 429 239 21 23 37 84 53 68 21 156 139 44 95 20 89 85 410 23 22
leaf_count=24 115 22 21 22 50 36 73 74 36 125 36 429 239 21 23 37 84 53 68 21 156 139 44 95 20 89 85 410 23 22
internal_value=0 145.329 340.075 121.35 100.085 150.031 116.891 -48.2246 201.087 -12.3637 -32.4246 -12.5719 64.3109 387.408 264.918 107.452 -50.5002 -87.2656 -97.5266 -213.726 -84.0316 -62.0702 64.6457 134.381 86.7783 -8.23561 -53.7057 -91.8422 1.43105 148.927
internal_weight=0 660 79 581 538 404 368 2032 58 1066 914 789 275 43 96 152 134 966 913 95 818 662 272 139 115 133 514 523 113 45
internal_count=2692 660 79 581 538 404 368 2032 58 1066 914 789 275 43 96 152 134 966 913 95 818 662 272 139 115 133 514 523 113 45
cat_boundaries=0 2 4 5
cat_threshold=3255829504 70785 547561697 210110528 1
is_linear=0
shrinkage=0.1


Tree=21
num_leaves=31
num_cat=5
split_feature=4 4 17 15 18 8 8 16 1 8 0 0 15 20 13 11 9 0 10 9 12 2 7 11 2 7 0 3 3 12
split_gain=1.66182e+09 3.98025e+08 3.34289e+08 6.99566e+08 3.15526e+08 2.57003e+08 2.22379e+08 2.14311e+08 2.04273e+08 1.99563e+08 1.83328e+08 2.47749e+08 1.88914e+08 2.62222e+08 2.45093e+08 1.57416e+08 1.50237e+08 1.41911e+08 1.31192e+08 1.30473e+08 1.26327e+08 1.25649e+08 1.36147e+08 1.16119e+08 1.10862e+08 1.05656e+08 1.04643e+08 1.0434e+08 3.38845e+08 2.04541e+08
threshold=0 1 2 4.5000000000000009 3 319.50000000000006 236.50000000000003 4 1.0000000180025095e-35 223.50000000000003 26.500000000000004 24.500000000000004 4.5000000000000009 19.025000000000002 4.5000000000000009 1.0000000180025095e-35 36402.000000000007 17.500000000000004 1.5000000000000002 30211.000000000004 2010.5000000000002 1.5000000000000002 40.500000000000007 1.5000000000000002 19.500000000000004 71.500000000000014 31.500000000000004 21.500000000000004 19.500000000000004 2010.5000000000002
decision_type=9 9 1 2 1 2 2 9 2 2 2 2 2 2 2 2 2 2 2 2 2 2 2 2 2 2 2 2 2 2
left_child=2 21 3 -1 24 6 9 10 15 17 11 12 -3 14 -14 -7 -9 -6 -11 -15 -17 22 -2 -24 25 -5 -12 28 -23 -30
right_child=1 7 -4 4 5 8 -8 16 -10 18 26 -13 13 19 -16 20 -18 -19 -20 -21 -22 27 23 -25 -26 -27 -28 -29 29 -31
leaf_value=-360.92243754069011 325.63616854349772 -185.63367821173881 476.33556848474456 401.94694805145264 509.8978861236572 154.69329992675785 522.6190556117466 -18.117559550807382 236.50091609954836 160.354443302861 -193.38252136719052 130.18948851554623 92.093624651873554 -7.9243948754397309 -136.88350987283664 -35.988721745188649 189.52828791691707 161.13170037950789 -177.55950248718261 186.37759384527442 -328.79675452190895 -13.081342593106356 -8.8847525474352711 191.4408930094346 520.10317522321429 143.00533247727614 -58.94431360974724 -68.877841455642496 362.25119400024414 65.543879281557523
leaf_weight=24 24 134 37 40 20 25 21 327 32 27 203 62 54 220 348 41 39 28 20 41 23 396 78 46 35 26 81 146 42 52
leaf_count=24 24 134 37 40 20 25 21 327 32 27 203 62 54 220 348 41 39 28 20 41 23 396 78 46 35 26 81 146 42 52
internal_value=0 -33.3549 185.385 160.768 197.811 116.844 228.13 -63.286 19.814 163.032 -84.6475 -62.3603 -77.339 -55.4514 -106.125 -58.0958 3.90202 306.451 16.5613 22.5981 -141.217 24.3262 107.625 65.4296 342.339 299.94 -155.039 5.32462 27.4339 198.115
internal_weight=0 2293 399 362 338 237 116 1509 121 95 1143 859 797 663 402 89 366 48 47 261 64 784 148 124 101 66 284 636 490 94
internal_count=2692 2293 399 362 338 237 116 1509 121 95 1143 859 797 663 402 89 366 48 47 261 64 784 148 124 101 66 284 636 490 94
cat_boundaries=0 2 4 5 6 7
cat_threshold=0 70785 3264218176 209977344 1 12 52
is_linear=0
shrinkage=0.1


Tree=22
num_leaves=31
num_cat=4
split_feature=4 4 5 13 0 13 20 12 7 8 13 16 7 15 20 6 13 0 3 3 3 8 9 3 3 7 9 9 11 11
split_gain=1.34607e+09 3.28608e+08 2.85401e+08 3.92426e+08 2.42545e+08 1.60148e+08 1.63198e+08 2.21945e+08 2.06315e+08 1.68122e+08 1.56762e+08 1.52661e+08 1.46782e+08 1.39101e+08 2.20898e+08 1.72673e+08 1.53939e+08 1.58695e+08 1.3562e+08 1.54931e+08 4.07044e+08 1.76581e+08 1.62168e+08 2.25531e+08 1.34772e+08 1.31078e+08 1.29069e+08 1.28677e+08 1.2423e+08 1.23791e+08
threshold=0 1 2 10.500000000000002 26.500000000000004 8.5000000000000018 14.575000000000001 2010.5000000000002 44.500000000000007 362.50000000000006 7.5000000000000009 3 63.500000000000007 4.5000000000000009 19.041666666666668 22.250000000000004 10.500000000000002 24.500000000000004 2.5000000000000004 17.500000000000004 20.500000000000004 442.50000000000006 37195.000000000007 19.500000000000004 28.500000000000004 56.500000000000007 36402.000000000007 30211.000000000004 1.5000000000000002 1.0000000180025095e-35
decision_type=9 9 9 2 2 2 2 2 2 2 2 9 2 2 2 2 2 2 2 2 2 2 2 2 2 2 2 2 2 2
left_child=2 18 4 5 -1 6 7 -4 -8 10 -10 13 -7 -3 16 -16 -15 -18 25 -20 21 22 -21 -24 -22 27 29 -2 -26 -13
right_child=1 11 3 -5 -6 12 8 -9 9 -11 -12 26 -14 14 15 -17 17 -19 19 20 24 -23 23 -25 28 -27 -28 -29 -30 -31
leaf_value=122.48283240829197 71.819599569411508 -162.14574357640674 658.63854493379597 616.03928955078129 -178.30487505594891 -73.775930960518977 -26.95387878417969 215.53999134944036 499.86529039806794 108.64918140550941 150.6860400390625 -125.63299345288959 255.85542477694426 -121.47312375381439 -115.17317552112398 53.905490759028943 -146.63242958687448 116.69220614115397 -41.775776857244388 102.01001955149125 -65.435086413185203 -45.732728068033857 116.79799225146954 499.01876035991472 302.72182362874349 30.57233612060547 170.57545987642732 410.77434844970708 -10.294416356086732 18.004964381626674
leaf_weight=105 21 171 20 25 36 35 33 26 36 41 20 84 22 497 84 215 37 60 391 49 202 27 26 38 21 65 39 24 32 210
leaf_count=105 21 171 20 25 36 35 33 26 36 41 20 84 22 497 84 215 37 60 391 49 202 27 26 38 21 65 39 24 32 210
internal_value=0 -30.0195 166.846 230.591 42.6604 199.131 246.311 408.192 189.031 262.51 375.158 -60.2185 53.4502 -78.7782 -63.6964 6.40513 -98.9832 16.2488 17.2105 2.8482 47.0203 184.023 238.92 343.742 -28.1967 121.4 -0.348939 252.595 113.731 -23.0345
internal_weight=0 2293 399 258 141 233 176 46 130 97 56 1397 57 1064 893 299 594 97 896 786 395 140 113 64 255 110 333 45 53 294
internal_count=2692 2293 399 258 141 233 176 46 130 97 56 1397 57 1064 893 299 594 97 896 786 395 140 113 64 255 110 333 45 53 294
cat_boundaries=0 2 4 6 7
cat_threshold=0 70785 3264291904 209977408 4096 8 52
is_linear=0
shrinkage=0.1


Tree=23
num_leaves=31
num_cat=6
split_feature=4 4 17 15 18 8 3 1 14 5 14 9 8 3 3 3 8 3 12 3 6 9 8 4 7 10 8 10 0 15
split_gain=1.09032e+09 2.64706e+08 2.56425e+08 5.65824e+08 2.53416e+08 1.96557e+08 1.89909e+08 1.65149e+08 1.37792e+08 1.35331e+08 1.28588e+08 1.26295e+08 2.20278e+08 1.17243e+08 1.39105e+08 3.34153e+08 1.43496e+08 1.34211e+08 2.20524e+08 1.31481e+08 1.13752e+08 1.20875e+08 1.12124e+08 1.14524e+08 1.07698e+08 1.11237e+08 1.1575e+08 9.4748e+07 9.29752e+07 9.46972e+07
threshold=0 1 2 4.5000000000000009 3 319.50000000000006 2.5000000000000004 1.0000000180025095e-35 17.500000000000004 4 21.500000000000004 67045.500000000015 223.50000000000003 2.5000000000000004 17.500000000000004 20.500000000000004 442.50000000000006 19.500000000000004 2011.5000000000002 1.5000000000000002 13.950000000000001 48426.000000000007 139.00000000000003 5 74.500000000000014 1.5000000000000002 269.50000000000006 1.0000000180025095e-35 11.500000000000002 5.5000000000000009
decision_type=9 9 1 2 1 2 2 2 2 9 2 2 2 2 2 2 2 2 2 2 2 2 2 9 2 2 2 2 2 2
left_child=2 13 3 -1 -5 6 -6 8 -7 22 11 12 -8 19 -15 16 17 -16 -19 -2 -17 24 -3 -24 25 26 -22 -11 -29 -30
right_child=1 9 -4 4 5 7 10 -9 -10 27 -12 -13 -14 14 15 20 -18 18 -20 -21 21 -23 23 -25 -26 -27 -28 28 29 -31
leaf_value=-340.88395055135095 17.666510968208314 -162.43697111649948 404.67857896959458 289.75692121488555 468.11089797973636 35.726770330358441 400.89754816691084 200.44002065658572 -219.00086892264233 -154.41956272924733 329.84139105478926 -113.60193053025466 -38.425956726074219 -40.503410936636158 98.170017271221809 -175.28371058872767 -41.159457171404803 491.69216844963307 113.71275129523769 235.88578818639121 -26.252019827706473 142.68018737325863 40.569187219180762 -43.474549398858564 -179.03651966094972 -72.672113280826153 263.93707331904659 -7.3617383500528053 -130.1771985575684 3.8860295912798715
leaf_weight=24 65 55 37 101 20 54 21 32 35 167 24 26 25 396 53 42 27 33 29 48 28 49 242 449 40 72 27 169 234 68
leaf_count=24 65 55 37 101 20 54 21 32 35 167 24 26 25 396 53 42 27 33 29 48 28 49 242 449 40 72 27 169 234 68
internal_value=0 -27.0175 150.162 128.296 161.61 90.9363 187.784 5.60575 -64.447 -54.4439 129.383 62.5632 162.135 14.8787 1.51089 43.1051 166.304 215.013 314.895 110.361 -24.7023 4.57741 -24.6897 -14.083 -35.9438 9.12482 116.204 -88.317 -66.7545 -99.9908
internal_weight=0 2293 399 362 338 237 116 121 89 1384 96 72 46 909 796 400 142 115 62 113 258 216 746 691 167 127 55 638 471 302
internal_count=2692 2293 399 362 338 237 116 121 89 1384 96 72 46 909 796 400 142 115 62 113 258 216 746 691 167 127 55 638 471 302
cat_boundaries=0 2 4 5 6 7 9
cat_threshold=0 70785 3264291904 210108480 1 12 8194 541327665 2564
is_linear=0
shrinkage=0.1


Tree=24
num_leaves=31
num_cat=7
split_feature=4 16 17 4 5 5 13 3 3 3 3 9 3 9 0 3 9 12 3 6 20 7 14 3 14 4 0 9 2 2
split_gain=8.91037e+08 2.59556e+08 3.34798e+08 2.78552e+08 2.4993e+08 2.29327e+08 3.06779e+08 2.17939e+08 2.14128e+08 4.99633e+08 2.43881e+08 2.86161e+08 2.10644e+08 1.94895e+08 1.81355e+08 1.65641e+08 1.61951e+08 1.42846e+08 1.56563e+08 1.3027e+08 1.15785e+08 1.15658e+08 1.03502e+08 1.02589e+08 1.01478e+08 9.61772e+07 9.60413e+07 1.11013e+08 9.07571e+07 8.9692e+07
threshold=0 1 2 3 4 5 10.500000000000002 2.5000000000000004 17.500000000000004 20.500000000000004 19.500000000000004 36402.000000000007 1.5000000000000002 37195.000000000007 26.500000000000004 28.500000000000004 30211.000000000004 2010.5000000000002 12.500000000000002 22.250000000000004 15.558333333333335 71.500000000000014 21.500000000000004 17.500000000000004 20.500000000000004 6 28.500000000000004 30211.000000000004 11.500000000000002 19.500000000000004
decision_type=9 9 1 9 9 9 2 2 2 2 2 2 2 2 2 2 2 2 2 2 2 2 2 2 2 9 2 2 2 2
left_child=5 2 16 4 26 14 17 12 -9 10 -10 -12 22 -14 21 24 -2 23 19 -19 -20 -1 -6 29 -11 28 27 -3 -5 -7
right_child=1 3 -4 25 7 6 -8 8 9 15 11 -13 13 -15 -16 -17 -18 18 20 -21 -22 -23 -24 -25 -26 -27 -28 -29 -30 -31
leaf_value=194.7594726007635 -129.9145973389478 -185.94257019444515 97.023114693381572 -97.854691571605457 -30.474473374388943 84.32912613624751 532.80543823242192 -25.302641832421468 116.0936017036438 -90.826021220665851 112.99443831670851 582.49668471392465 157.88449372511644 573.10429227828979 -165.4018937004937 167.92415227306134 -337.38688769531251 13.86173518787731 -198.90524431311567 321.14293839738178 82.675123748779299 -15.384184143066406 244.88240196228026 379.5236278333162 49.98266279129755 -36.343590444378684 -270.50714701990927 51.313247513189552 -314.82561060587568 309.6198740641276
leaf_weight=55 152 38 55 98 43 43 25 410 64 131 21 34 26 20 36 49 50 22 23 37 40 50 20 38 84 902 31 41 24 30
leaf_count=55 152 38 55 98 43 43 25 410 64 131 21 34 26 20 36 49 50 22 23 37 40 50 20 38 84 902 31 41 24 30
internal_value=0 -24.317 -117.154 -12.0831 25.0185 135.854 192.449 42.6717 24.9209 78.6851 248.805 403.232 175.728 338.415 26.4112 2.00234 -181.269 164.189 89.5035 206.564 -20.1241 94.6911 56.9404 246.276 -35.8124 -48.6373 -111.231 -62.8098 -129.891 176.914
internal_weight=0 2293 257 2036 1012 399 258 902 793 383 119 55 109 46 141 264 202 233 122 59 63 105 63 111 215 1024 110 79 122 73
internal_count=2692 2293 257 2036 1012 399 258 902 793 383 119 55 109 46 141 264 202 233 122 59 63 105 63 111 215 1024 110 79 122 73
cat_boundaries=0 2 3 4 6 8 10 12
cat_threshold=0 70785 20 1 1657812384 209977860 134234112 8 4096 8 2 536903680
is_linear=0
shrinkage=0.1


Tree=25
num_leaves=31
num_cat=6
split_feature=4 5 4 13 17 15 18 11 8 8 13 17 15 6 14 3 3 3 21 3 3 8 6 14 0 9 2 20 0 8
split_gain=7.21898e+08 2.11738e+08 2.40319e+08 1.99764e+08 1.96755e+08 4.55539e+08 2.11417e+08 1.80808e+08 1.72573e+08 1.7064e+08 1.44247e+08 1.3936e+08 2.81752e+08 1.56586e+08 1.49435e+08 1.32488e+08 4.98779e+08 1.87481e+08 2.24733e+08 1.53351e+08 1.25476e+08 1.24121e+08 1.20114e+08 1.0732e+08 1.41518e+08 1.03796e+08 1.01925e+08 1.01125e+08 1.3311e+08 1.1453e+08
threshold=0 1 2 10.500000000000002 3 4.5000000000000009 4 1.0000000180025095e-35 388.50000000000006 319.50000000000006 3.5000000000000004 5 4.5000000000000009 27.250000000000004 5.5000000000000009 17.500000000000004 20.500000000000004 19.500000000000004 8.5000000000000018 28.500000000000004 2.5000000000000004 408.50000000000006 20.850000000000005 21.500000000000004 16.500000000000004 27626.000000000004 7.5000000000000009 14.008333333333335 24.500000000000004 231.50000000000003
decision_type=9 9 9 2 1 2 1 2 2 2 2 1 2 2 2 2 2 2 2 2 2 2 2 2 2 2 2 2 2 2
left_child=4 10 -3 11 5 -1 -7 8 -8 23 -2 12 13 25 -13 20 17 -17 -19 -18 -14 -11 -12 24 -9 -4 -21 -5 -29 -30
right_child=1 2 3 27 -6 6 7 9 -10 21 22 14 15 -15 -16 16 19 18 -20 26 -22 -23 -24 -25 -26 -27 -28 28 29 -31
leaf_value=-318.09724817276003 74.904093089856602 -97.873720133304602 -150.12926265841625 264.03601234189927 344.98249176643992 248.68672145809137 311.95909213630523 210.7857156824183 0.7481931413922992 -290.00326995849611 -193.43866830795585 231.22886781692506 47.717981845212272 -25.245484115138197 4.6757365780907705 92.502913503257602 -60.630037206857381 47.62463857477362 437.61415188259554 261.03690420297477 -50.845571226926197 -13.529004300025202 -49.072158121816898 313.17422979445683 -110.08268688746863 -372.5071092605591 11.303141507235441 -16.830560341748324 -35.95228283291771 237.89039131147521
leaf_weight=24 38 262 61 31 37 101 49 27 28 22 142 48 166 66 74 98 294 22 45 26 582 62 97 21 28 32 44 88 21 56
leaf_count=24 38 262 61 31 37 101 49 27 28 22 142 48 166 66 74 98 294 22 45 26 582 62 97 21 28 32 44 88 21 56
internal_value=0 -21.9011 -10.393 3.15497 122.269 102.883 132.775 69.9337 198.791 12.2918 -102.376 -8.79687 -17.5143 -143.046 93.8114 -1.88426 36.4173 180.64 309.558 -28.9586 -28.9718 -85.9389 -134.846 120.863 47.4345 -226.646 104.061 98.3209 67.1865 163.206
internal_weight=0 2293 2016 1754 399 362 338 237 77 160 277 1558 1436 159 122 1277 529 165 67 364 748 84 239 76 55 93 70 196 165 77
internal_count=2692 2293 2016 1754 399 362 338 237 77 160 277 1558 1436 159 122 1277 529 165 67 364 748 84 239 76 55 93 70 196 165 77
cat_boundaries=0 2 4 6 7 8 9
cat_threshold=0 70785 1073758208 40 70 570474758 1 12 1
is_linear=0
shrinkage=0.1


Tree=26
num_leaves=31
num_cat=6
split_feature=4 17 15 5 4 8 20 20 7 14 15 12 17 0 6 7 2 2 20 9 20 10 9 14 0 7 15 9 0 16
split_gain=6.0279e+08 2.62921e+08 3.61476e+08 2.39802e+08 2.7827e+08 1.51136e+08 1.46646e+08 2.76911e+08 2.10199e+08 1.30253e+08 1.5706e+08 1.53025e+08 1.3908e+08 1.29706e+08 1.20068e+08 2.43015e+08 2.20916e+08 1.88782e+08 1.37471e+08 2.78056e+08 1.0866e+08 1.52855e+08 1.03215e+08 1.01499e+08 9.59814e+07 1.5759e+08 1.5752e+08 9.87013e+07 9.62242e+07 9.50624e+07
threshold=0 1 4.5000000000000009 2 3 223.50000000000003 15.108333333333336 15.008333333333335 48.500000000000007 4.5000000000000009 4.5000000000000009 2010.5000000000002 4 18.500000000000004 13.950000000000001 48.500000000000007 18.500000000000004 5.5000000000000009 15.091666666666669 48426.000000000007 18.300000000000004 2.5000000000000004 37195.000000000007 18.500000000000004 16.500000000000004 60.500000000000007 5.5000000000000009 44768.500000000007 9.5000000000000018 5
decision_type=9 1 2 9 9 2 2 2 2 2 2 2 1 2 2 2 2 2 2 2 2 2 2 2 2 2 2 2 2 9
left_child=1 2 -1 4 9 -4 7 8 -7 12 11 -11 13 -2 16 17 -12 -16 19 23 21 -20 -19 -17 25 -5 27 -26 -27 -6
right_child=3 -3 5 24 29 6 -8 -9 -10 10 14 -13 -14 -15 15 18 -18 22 20 -21 -22 -23 -24 -25 26 28 -28 -29 -30 -31
leaf_value=-284.641401890346 -110.97494390578498 458.94582277933762 313.12570883009175 184.49971105711802 -104.87159338246764 366.71347475918856 183.56577902899849 -278.71524740854898 -40.240266164143883 51.267581651475695 59.940464714595251 -199.48729094739232 382.24000438343398 203.3869952283587 98.504697551727304 -79.495770146296579 428.04366014729379 -2.3997886657714846 49.186132386151485 460.78574506319484 81.907857698826561 -238.35512008790312 -233.15021966601176 197.32582964014125 -148.82401562266881 -118.69715105496921 16.303328586925158 -376.2409601384943 31.092373126745226 -19.857781110121337
leaf_weight=21 21 24 45 28 143 22 108 24 30 45 56 53 22 35 40 26 23 28 51 26 210 29 63 27 144 130 55 22 64 1077
leaf_count=21 21 24 45 28 143 22 108 24 30 45 56 53 22 35 40 26 23 28 51 26 210 29 63 27 144 130 55 22 64 1077
internal_value=0 137.762 112.438 -16.2112 -1.146 148.852 108.676 2.25424 131.932 46.2169 32.7306 -84.3447 169.197 85.5013 52.5464 34.4454 167.11 -82.5608 75.9842 192.928 44.127 -55.0476 -162.15 61.5266 -81.8676 -37.2735 -130.368 -178.964 -69.2821 -30.5941
internal_weight=0 274 250 2418 1975 229 184 76 52 755 677 98 78 56 579 500 79 131 369 79 290 80 91 53 443 222 221 166 194 1220
internal_count=2692 274 250 2418 1975 229 184 76 52 755 677 98 78 56 579 500 79 131 369 79 290 80 91 53 443 222 221 166 194 1220
cat_boundaries=0 2 3 4 6 7 8
cat_threshold=0 66689 1 12803 3229684768 209719296 1 20
is_linear=0
shrinkage=0.1


Tree=27
num_leaves=31
num_cat=6
split_feature=9 17 15 13 3 3 14 0 20 6 3 12 12 0 3 5 4 16 17 9 0 3 8 9 14 13 8 4 3 3
split_gain=4.95533e+08 2.2728e+08 4.97727e+08 2.17038e+08 2.03993e+08 2.59596e+08 1.92742e+08 1.7565e+08 3.5711e+08 2.34701e+08 2.29002e+08 1.85737e+08 1.80282e+08 2.43286e+08 1.9353e+08 1.46648e+08 1.44966e+08 1.42888e+08 1.74709e+08 1.31586e+08 1.25351e+08 1.15611e+08 9.43666e+07 9.42574e+07 8.21657e+07 8.17913e+07 8.05316e+07 8.70201e+07 8.01318e+07 2.66306e+08
threshold=38595.000000000007 0 4.5000000000000009 11.500000000000002 28.500000000000004 21.500000000000004 5.5000000000000009 26.500000000000004 15.075000000000001 16.250000000000004 17.500000000000004 2009.5000000000002 2012.5000000000002 18.500000000000004 12.500000000000002 1 2 3 4 49066.000000000007 9.5000000000000018 7.5000000000000009 310.50000000000006 48426.000000000007 21.500000000000004 7.5000000000000009 156.50000000000003 5 17.500000000000004 20.500000000000004
decision_type=2 1 2 2 2 2 2 2 2 2 2 2 2 2 2 9 9 9 1 2 2 2 2 2 2 2 2 9 2 2
left_child=15 2 23 4 5 7 -3 10 9 -9 12 -12 14 -14 -4 -1 17 18 25 -13 -6 -10 -23 -2 -7 -17 -18 -28 -19 -30
right_child=1 6 3 -5 20 24 -8 8 21 -11 11 19 13 -15 -16 16 26 28 -20 -21 -22 22 -24 -25 -26 -27 27 -29 29 -31
leaf_value=-123.86402207988584 -127.70718383789062 484.02066594904119 51.758690506479013 388.24412958054319 449.27999893188485 -144.32077540886112 127.72685540646924 -467.0178551715353 -65.934452601841528 -32.310589038001169 401.15573650541762 262.76111281258721 90.493875591456899 490.06443794965747 -233.0893750871931 -215.63944485429408 -141.57150445145169 -3.5222664348837132 137.65379970257101 -60.049371173070824 126.07904886881511 364.35034557689323 64.221743354797368 -423.89764681729406 66.050172821680704 -29.69963133070204 -101.11332098764215 -18.643218664027795 187.72876513944854 -0.88276784928772745
leaf_weight=136 21 22 161 21 20 82 49 23 21 27 42 28 64 20 28 69 89 532 26 23 30 22 20 22 24 36 167 519 109 239
leaf_count=136 21 22 161 21 20 82 49 23 21 27 42 28 64 20 28 69 89 532 26 23 30 22 20 22 24 36 167 519 109 239
internal_value=0 67.659 50.3439 71.9481 61.488 44.9177 238.128 76.2547 -32.7281 -232.276 109.902 245.427 63.7346 185.63 9.55898 -27.2815 -19.1263 5.88472 -87.7256 117.18 255.359 125.643 221.432 -279.246 -96.6896 -151.889 -51.413 -40.4655 20.649 58.1938
internal_weight=0 770 699 656 635 585 71 479 113 50 366 93 273 84 189 1922 1786 1011 131 51 50 63 42 43 106 105 775 686 880 348
internal_count=2692 770 699 656 635 585 71 479 113 50 366 93 273 84 189 1922 1786 1011 131 51 50 63 42 43 106 105 775 686 880 348
cat_boundaries=0 1 3 5 6 7 9
cat_threshold=1 0 8 579482017 75762240 20 1 6 536903680
is_linear=0
shrinkage=0.1


Tree=28
num_leaves=31
num_cat=4
split_feature=4 17 15 5 4 6 6 2 14 7 2 14 20 8 6 13 11 6 7 8 14 13 3 3 3 8 3 3 21 7
split_gain=4.34778e+08 1.89986e+08 2.43718e+08 1.75292e+08 1.94761e+08 1.37655e+08 1.27267e+08 1.60305e+08 1.25559e+08 1.53622e+08 1.77667e+08 1.85608e+08 1.28557e+08 1.17548e+08 1.2293e+08 1.55338e+08 1.2587e+08 2.12675e+08 1.16478e+08 1.22598e+08 1.10919e+08 9.81978e+07 8.6615e+07 1.50015e+08 1.88739e+08 1.25072e+08 1.26517e+08 1.06447e+08 8.49241e+07 8.41683e+07
threshold=0 1 4.5000000000000009 2 3 10.15 13.950000000000001 18.500000000000004 4.5000000000000009 46.500000000000007 5.5000000000000009 23.500000000000004 14.575000000000001 223.50000000000003 25.350000000000005 10.500000000000002 1.0000000180025095e-35 17.050000000000004 61.500000000000007 362.50000000000006 18.500000000000004 5.5000000000000009 28.500000000000004 21.500000000000004 17.500000000000004 94.500000000000014 2.5000000000000004 1.5000000000000002 23.500000000000004 52.500000000000007
decision_type=9 1 2 9 9 2 2 2 2 2 2 2 2 2 2 2 2 2 2 2 2 2 2 2 2 2 2 2 2 2
left_child=1 2 -1 4 5 -2 7 -7 18 10 -10 -12 20 -4 15 16 -15 -18 19 -8 -11 29 23 24 25 -6 27 -27 -25 -14
right_child=3 -3 13 -5 22 6 8 -9 9 12 11 -13 21 14 -16 -17 17 -19 -20 -21 -22 -23 -24 28 -26 26 -28 -29 -30 -31
leaf_value=-230.71266392299108 -191.79300719041092 389.88665625254316 270.10996270073787 -70.030537640232652 -238.8697531730898 55.055411065793514 379.46259425027029 349.52091138116248 86.840159007481176 -7.8794215809215205 -224.68148351816032 64.575334290535224 104.08959764480592 137.44157090187073 225.47554553284937 290.48828735351566 -327.42670847574868 34.718974365234374 -6.8475550989950866 67.872051122914201 269.29753207252139 44.822427773055672 91.241817862527412 -139.61243935189052 68.950163726660676 -19.835160450313403 -58.137490102456667 153.14790925568548 54.3706356048584 -130.93258634954691
leaf_weight=21 26 24 45 443 31 51 28 29 49 22 78 31 20 40 49 21 24 50 31 23 42 369 57 171 196 92 481 58 26 64
leaf_count=21 26 24 45 443 31 51 28 29 49 22 78 31 20 40 49 21 24 50 31 23 42 369 57 171 196 92 481 58 26 64
internal_value=0 116.87 95.3356 -13.8956 -1.01501 34.4119 41.8498 161.799 29.1735 14.9786 -71.3174 -142.416 41.3515 125.235 89.8039 40.5602 -5.47921 -82.7337 146.021 238.941 174.018 22.6083 -28.5708 -35.3149 -17.2461 -42.7664 -33.1322 47.0516 -114.011 -74.9749
internal_weight=0 274 250 2418 1975 863 837 80 757 675 158 109 517 229 184 135 114 74 82 51 64 453 1112 1055 858 662 631 150 197 84
internal_count=2692 274 250 2418 1975 863 837 80 757 675 158 109 517 229 184 135 114 74 82 51 64 453 1112 1055 858 662 631 150 197 84
cat_boundaries=0 2 3 4 6
cat_threshold=0 66689 1 12803 3229816112 209719296
is_linear=0
shrinkage=0.1


Tree=29
num_leaves=31
num_cat=3
split_feature=4 3 3 3 2 0 13 0 0 4 2 12 8 8 12 12 21 17 0 0 12 13 2 8 6 7 3 14 15 9
split_gain=3.5305e+08 2.25347e+08 2.40167e+08 4.02474e+08 1.51149e+08 1.12622e+08 2.79405e+08 1.98018e+08 1.4057e+08 1.34382e+08 1.29626e+08 1.0729e+08 1.04313e+08 3.15981e+08 9.82619e+07 9.41345e+07 1.54512e+08 9.09428e+07 9.21472e+07 8.82694e+07 8.56993e+07 1.39176e+08 1.21966e+08 1.2267e+08 1.12033e+08 1.09556e+08 1.04928e+08 8.49138e+07 1.20648e+08 8.15248e+07
threshold=0 28.500000000000004 20.500000000000004 19.500000000000004 19.500000000000004 26.500000000000004 3.5000000000000004 24.500000000000004 31.500000000000004 1 23.500000000000004 2014.5000000000002 250.50000000000003 388.50000000000006 2015.5000000000002 2010.5000000000002 15.500000000000002 2 3.5000000000000004 12.500000000000002 2012.5000000000002 7.5000000000000009 14.500000000000002 429.50000000000006 20.150000000000002 64.500000000000014 9.5000000000000018 9.5000000000000018 4.5000000000000009 36402.000000000007
decision_type=9 2 2 2 2 2 2 2 2 9 2 2 2 2 2 2 2 1 2 2 2 2 2 2 2 2 2 2 2 2
left_child=1 2 3 4 20 6 29 9 11 17 -9 -7 -6 -14 -11 16 -4 18 -8 27 22 25 24 -24 -1 -22 -26 -20 -29 -2
right_child=5 -3 15 -5 12 8 7 10 -10 14 -12 -13 13 -15 -16 -17 -18 -19 19 -21 21 -23 23 -25 26 -27 -28 28 -30 -31
leaf_value=-60.31358818667276 89.078985008739295 304.92836994371913 236.95054460608441 472.09425976093002 43.234997358776276 -125.83423295003266 -90.163511412208152 53.930140474955238 23.837555329553012 -70.57773806706048 320.93959108988446 -6.9854168370084952 564.58158482142858 93.114780530062603 68.771200617009953 -124.54936041009837 -122.19296411132812 120.40468586155626 -69.234747456489728 -30.409434911642691 109.25601429294896 253.93049330840242 -243.81791983681757 58.785206304277693 32.841083467923674 -176.7149642944336 298.59374942779544 -59.457668574651088 121.30583157539368 272.60890015994801
leaf_weight=56 84 38 23 26 42 268 111 75 145 633 24 106 21 44 55 87 25 61 47 263 37 37 37 21 39 21 24 48 160 34
leaf_count=56 84 38 23 26 42 268 111 75 145 633 24 106 21 44 55 87 25 61 47 263 37 37 37 21 39 21 24 48 160 34
internal_value=0 68.3669 52.986 91.4894 65.3793 -19.1914 -6.1159 -17.946 -59.7449 -27.7602 118.66 -92.1498 166.067 245.435 -58.5864 -62.5241 49.8966 3.77112 -7.47997 10.2379 25.7706 102.388 -15.3519 -134.255 42.6008 5.7148 134.08 52.1605 79.5912 141.96
internal_weight=0 578 540 405 379 2114 1595 1477 519 1378 99 374 107 65 688 135 48 690 629 518 272 95 177 58 119 58 63 255 208 118
internal_count=2692 578 540 405 379 2114 1595 1477 519 1378 99 374 107 65 688 135 48 690 629 518 272 95 177 58 119 58 63 255 208 118
cat_boundaries=0 2 4 5
cat_threshold=1073742848 70785 2729120144 201328710 1
is_linear=0
shrinkage=0.1


Tree=30
num_leaves=31
num_cat=4
split_feature=4 3 3 3 2 3 3 3 3 13 6 14 21 12 5 4 15 0 13 0 8 2 0 6 13 8 13 17 15 7
split_gain=2.90222e+08 1.56431e+08 2.03122e+08 2.84767e+08 1.80548e+08 1.26618e+08 1.88462e+08 1.72427e+08 1.18582e+08 1.37065e+08 1.68632e+08 1.28737e+08 1.28159e+08 1.15778e+08 1.09157e+08 1.13646e+08 1.20556e+08 1.17807e+08 2.17973e+08 1.29942e+08 9.21917e+07 8.9885e+07 8.96822e+07 8.51685e+07 8.71186e+07 8.41359e+07 8.20935e+07 8.08082e+07 8.87732e+07 8.03588e+07
threshold=0 28.500000000000004 20.500000000000004 17.500000000000004 17.500000000000004 2.5000000000000004 1.5000000000000002 4.5000000000000009 11.500000000000002 7.5000000000000009 24.750000000000004 21.500000000000004 15.500000000000002 2011.5000000000002 1 2 5.5000000000000009 26.500000000000004 4.5000000000000009 24.500000000000004 243.50000000000003 14.500000000000002 31.500000000000004 30.750000000000004 3.5000000000000004 238.50000000000003 3.5000000000000004 3 4.5000000000000009 64.500000000000014
decision_type=9 2 2 2 2 2 2 2 2 2 2 2 2 2 9 9 2 2 2 2 2 2 2 2 2 2 2 1 2 2
left_child=1 2 3 5 -5 6 -1 -7 9 10 12 20 -9 21 -2 -16 17 19 22 23 -10 -11 -19 24 -17 -21 -18 28 -26 -20
right_child=14 -3 -4 4 -6 7 -8 8 11 13 -12 -13 -14 -15 15 16 26 18 29 25 -22 -23 -24 -25 27 -27 -28 -29 -30 -31
leaf_value=27.087475931076781 -78.390765117865342 255.82629574506711 -56.943631190279113 151.08017640113832 514.70035788796167 -195.38211466471355 349.21555495262146 221.59669399776976 -331.16438810348512 43.16144021075705 380.56736092744052 109.92446726989748 -39.86756816412273 143.86576597152219 -87.250767296446853 92.344261071488674 191.19912554966777 -159.4559281894139 149.12406062043232 -29.83231488357891 -27.533583679199218 -225.85749099166307 -4.4655768553415935 196.68762985229492 -105.07232074168192 205.5698685110832 34.976918556747179 69.086496128506141 -15.682127515022572 -25.319049945954355
leaf_weight=42 250 39 137 36 22 33 32 37 20 23 27 25 38 31 159 74 38 168 46 22 20 27 48 20 134 49 293 90 650 62
leaf_count=42 250 39 137 36 22 33 32 37 20 23 27 25 38 31 159 74 38 168 46 22 20 27 48 20 134 49 293 90 650 62
internal_value=0 61.2541 48.5708 83.572 289.005 50.0083 166.386 19.3608 47.9354 89.1466 166.269 -68.09 89.1215 -7.97038 -17.6042 -9.02632 -1.21518 -14.3686 -67.0155 2.04865 -179.349 -102.109 -125.014 -7.52899 -11.8374 132.628 52.9118 -20.6582 -30.9606 48.9808
internal_weight=0 589 550 413 58 355 74 281 248 183 102 65 75 81 2103 1853 1694 1363 324 1039 40 50 216 968 948 71 331 874 784 108
internal_count=2692 589 550 413 58 355 74 281 248 183 102 65 75 81 2103 1853 1694 1363 324 1039 40 50 216 968 948 71 331 874 784 108
cat_boundaries=0 2 4 6 7
cat_threshold=1074791424 70785 1073741828 40 6 536903680 1
is_linear=0
shrinkage=0.1


Tree=31
num_leaves=31
num_cat=3
split_feature=4 3 3 0 13 0 9 20 11 5 13 12 7 0 20 4 14 9 15 9 8 8 9 3 0 9 2 8 11 9
split_gain=2.40294e+08 1.6081e+08 1.95602e+08 1.1234e+08 1.68147e+08 1.69466e+08 1.15829e+08 1.08153e+08 1.06579e+08 1.03386e+08 1.21785e+08 2.82523e+08 1.12125e+08 1.02418e+08 9.47906e+07 9.4721e+07 1.12797e+08 1.05985e+08 8.97641e+07 1.07627e+08 8.65963e+07 1.07173e+08 1.37027e+08 8.38334e+07 9.41825e+07 8.84428e+07 7.6681e+07 7.58618e+07 7.25093e+07 6.46861e+07
threshold=0 28.500000000000004 22.500000000000004 26.500000000000004 3.5000000000000004 24.500000000000004 23230.500000000004 15.075000000000001 1.5000000000000002 1 10.500000000000002 2010.5000000000002 62.500000000000007 31.500000000000004 16.058333333333337 2 6.5000000000000009 30211.000000000004 5.5000000000000009 21250.000000000004 413.50000000000006 467.00000000000006 36402.000000000007 17.500000000000004 18.500000000000004 48426.000000000007 18.500000000000004 243.50000000000003 1.0000000180025095e-35 36402.000000000007
decision_type=9 2 2 2 2 2 2 2 2 9 2 2 2 2 2 9 2 2 2 2 2 2 2 2 2 2 2 2 2 2
left_child=1 2 9 4 -2 15 -7 -4 -3 10 23 -12 -11 18 -14 -6 17 -17 19 -5 29 22 -22 -1 25 -25 -15 -9 -28 -18
right_child=3 8 7 13 5 6 -8 27 -10 12 11 -13 14 26 -16 16 20 -19 -20 -21 21 -23 -24 24 -26 -27 28 -29 -30 -31
leaf_value=38.118313759459546 114.73056403454218 364.37930572509771 28.318702409852229 -69.454202065785736 3.9575218406447483 37.344354783442981 282.82741576885354 -68.093370687961581 80.309383719308045 113.92256004519579 16.05306380699421 485.36970858366595 -182.09535639286042 -60.855909774552529 21.107428949529478 -9.1697404011436134 -82.99261742314016 235.15662113536487 -5.4044021818075292 -204.6236199133175 -14.49755683609202 -92.478344765779013 254.12068353271485 114.19188879186457 22.587173011975413 360.80359450120193 -57.648370143345431 -274.66604824066161 170.85415778974209 -198.43837510108949
leaf_weight=338 107 25 53 150 596 57 29 40 28 41 29 23 48 67 44 92 254 22 89 97 79 107 25 33 39 26 21 32 41 60
leaf_count=338 107 25 53 150 596 57 29 40 28 41 29 23 48 67 44 92 254 22 89 97 79 107 25 33 39 26 21 32 41 60
internal_value=0 45.4241 34.0348 -19.6372 -5.83965 -15.6057 120.124 -80.0973 214.305 57.0083 77.3959 223.635 -21.9652 -62.4313 -84.9114 -25.0573 -51.3776 37.981 -91.5108 -122.537 -71.7598 -22.2155 50.0741 61.7296 143.165 222.868 13.3105 -159.903 93.4581 -105.052
internal_weight=0 799 746 1893 1428 1321 86 125 53 621 488 52 133 465 92 1235 639 114 336 247 525 211 104 436 98 59 129 72 62 314
internal_count=2692 799 746 1893 1428 1321 86 125 53 621 488 52 133 465 92 1235 639 114 336 247 525 211 104 436 98 59 129 72 62 314
cat_boundaries=0 2 3 5
cat_threshold=1108345856 67441793 4102 2225803664 8390724
is_linear=0
shrinkage=0.1


Tree=32
num_leaves=31
num_cat=2
split_feature=4 0 6 13 12 3 3 3 3 3 12 3 9 13 9 21 9 7 8 4 0 12 2 13 13 14 14 0 8 6
split_gain=2.09299e+08 1.30785e+08 1.95396e+08 1.24104e+08 1.40765e+08 1.22663e+08 2.52641e+08 2.1331e+08 6.09975e+08 3.47034e+08 3.83964e+08 1.75378e+08 1.56855e+08 1.13168e+08 1.11237e+08 1.03796e+08 9.90878e+07 9.51915e+07 9.09253e+07 9.38946e+07 9.12417e+07 8.76787e+07 8.67592e+07 8.08818e+07 7.79675e+07 7.72739e+07 8.91659e+07 7.86799e+07 1.8351e+08 7.85733e+07
threshold=0 26.500000000000004 16.250000000000004 4.5000000000000009 2008.5000000000002 2.5000000000000004 1.5000000000000002 17.500000000000004 20.500000000000004 19.500000000000004 2009.5000000000002 28.500000000000004 36402.000000000007 6.5000000000000009 44768.500000000007 23.500000000000004 41469.500000000007 86.500000000000014 137.50000000000003 1 13.500000000000002 2013.5000000000002 24.500000000000004 7.5000000000000009 3.5000000000000004 19.500000000000004 6.5000000000000009 7.5000000000000009 236.50000000000003 20.750000000000004
decision_type=9 2 2 2 2 2 2 2 2 2 2 2 2 2 2 2 2 2 2 9 2 2 2 2 2 2 2 2 2 2
left_child=1 3 -3 -1 -5 6 21 18 9 -9 12 15 -11 -12 22 17 -15 25 20 -20 -7 -2 -8 24 -21 26 -10 28 -27 -29
right_child=5 2 -4 4 -6 7 14 8 11 10 13 -13 -14 16 -16 -17 -18 -19 19 23 -22 -23 -24 -25 -26 27 -28 29 -30 -31
leaf_value=359.72077805519103 -63.809021524308434 -233.02017457896264 113.66089902310758 230.55305889674597 41.342811798326899 -43.366690315919769 69.023962355248727 29.070825395955666 -12.429354669831016 276.34955284481958 253.09297679554334 64.775566393441522 643.80239706773034 145.78483698227828 369.38149601164321 85.813814674724242 -126.58142922141336 -224.40308044629219 16.725190644091871 5.5977516595419354 -207.18302031124341 87.966637284939111 292.95929105932066 -18.129227176702248 -105.93355633752635 -105.08153387583221 -134.18904933270656 22.25816720603169 260.78736719591865 -128.11531484331405
leaf_weight=20 142 29 37 56 132 68 81 154 88 21 44 137 26 34 21 44 22 39 239 77 68 52 22 318 337 26 190 69 29 70
leaf_count=20 142 29 37 56 132 68 81 154 88 21 44 137 26 34 21 44 22 39 239 77 68 52 22 318 337 26 190 69 29 70
internal_value=0 81.0229 -38.6687 122.897 97.7033 -9.70587 48.1335 -18.5106 15.1402 133.977 243.879 -36.5504 479.621 133.08 159.621 -61.5624 38.7838 -74.2524 -48.696 -37.9702 -125.275 -23.1269 116.855 -55.3014 -85.1898 -61.8459 -95.6464 -13.41 87.8312 -53.4695
internal_weight=0 274 66 208 188 2418 318 2100 993 301 147 692 47 100 124 555 56 511 1107 971 136 194 103 732 414 472 278 194 55 139
internal_count=2692 274 66 208 188 2418 318 2100 993 301 147 692 47 100 124 555 56 511 1107 971 136 194 103 732 414 472 278 194 55 139
cat_boundaries=0 2 4
cat_threshold=0 66689 44048384 67113472
is_linear=0
shrinkage=0.1


Tree=33
num_leaves=31
num_cat=5
split_feature=4 5 12 21 20 2 8 3 7 5 16 4 3 3 3 3 3 20 8 3 7 8 9 13 14 14 15 3 3 2
split_gain=1.69687e+08 1.26334e+08 1.17362e+08 1.13081e+08 1.07051e+08 1.87253e+08 2.80854e+08 1.42155e+08 1.40579e+08 9.57435e+07 9.00329e+07 1.10508e+08 1.31363e+08 1.01002e+08 9.24399e+07 2.1116e+08 2.28833e+08 8.02762e+07 8.0213e+07 7.88941e+07 1.07903e+08 1.03438e+08 9.81552e+07 9.72585e+07 1.40618e+08 8.47054e+07 7.01826e+07 6.86394e+07 2.75114e+08 6.67219e+07
threshold=0 1 2009.5000000000002 18.500000000000004 14.575000000000001 17.500000000000004 250.50000000000003 28.500000000000004 81.500000000000014 2 3 4 2.5000000000000004 1.5000000000000002 17.500000000000004 20.500000000000004 19.500000000000004 17.058333333333337 223.50000000000003 20.500000000000004 63.500000000000007 432.50000000000006 41469.500000000007 8.5000000000000018 15.500000000000002 6.5000000000000009 4.5000000000000009 19.500000000000004 20.500000000000004 14.500000000000002
decision_type=9 9 2 2 2 2 2 2 2 9 9 9 2 2 2 2 2 2 2 2 2 2 2 2 2 2 2 2 2 2
left_child=1 4 3 -3 5 -1 -7 8 19 27 17 12 13 -12 -14 16 -16 -11 -17 20 21 25 -23 -22 -25 -6 -27 -2 -29 -21
right_child=9 2 -4 -5 7 6 -8 -9 -10 10 11 -13 14 -15 15 18 -18 -19 -20 29 23 22 -24 24 -26 26 -28 28 -30 -31
leaf_value=42.387844229190151 -120.95748158016721 129.73350372314454 -101.29636350829026 -146.63404693603516 184.38936778880932 18.632824489048549 438.40819883604308 241.05797656582251 280.37587432861329 73.360619163513192 67.13443265083508 -20.753608949597321 -24.056070159317613 318.74139890317565 58.139501349131265 -173.01202591605809 447.46856440030615 -105.35099848839546 33.722645811941113 -11.142146982120563 47.785486439678635 5.4658735535361558 -286.96186021169029 50.521633356267756 416.89092559814458 -177.59370668502083 20.447956591992341 315.95640556335451 -108.94760576188565 -175.39710485670304
leaf_weight=107 148 57 116 20 27 28 37 31 20 30 39 885 231 27 36 23 26 155 102 79 118 22 24 22 20 21 121 20 64 36
leaf_count=107 148 57 116 20 27 28 37 31 20 30 39 885 231 27 36 23 26 155 102 79 118 22 24 22 20 21 121 20 64 36
internal_value=0 34.8474 -35.9027 57.9497 54.2303 123.711 257.582 33.1427 20.5047 -18.042 -8.8543 0.203384 38.1679 170.065 18.2552 70.5221 221.407 -72.4543 -4.31653 9.89769 32.1184 -14.1562 -147.105 94.2999 224.983 22.0311 -8.8399 -76.6745 -7.77998 -62.5611
internal_weight=0 906 193 77 713 172 65 541 510 1786 1554 1369 484 66 418 187 62 185 125 490 375 215 46 160 42 169 142 232 84 115
internal_count=2692 906 193 77 713 172 65 541 510 1786 1554 1369 484 66 418 187 62 185 125 490 375 215 46 160 42 169 142 232 84 115
cat_boundaries=0 2 3 5 6 8
cat_threshold=1116734464 67441793 134221830 1207975940 8 20 541135144 176161284
is_linear=0
shrinkage=0.1


Tree=34
num_leaves=31
num_cat=7
split_feature=20 4 5 1 20 6 7 8 12 4 15 4 0 0 13 20 16 16 12 3 0 9 9 8 4 0 14 11 8 10
split_gain=1.53229e+08 1.74929e+08 9.53297e+07 1.5136e+08 1.20441e+08 2.81546e+08 1.86478e+08 1.22672e+08 9.51384e+07 1.74091e+08 1.2664e+08 1.19808e+08 1.09502e+08 1.05482e+08 1.15083e+08 1.08553e+08 1.1089e+08 1.08391e+08 1.08079e+08 8.60686e+07 9.23416e+07 8.4054e+07 8.33929e+07 8.11352e+07 7.32997e+07 7.22371e+07 1.11785e+08 9.01323e+07 1.05874e+08 7.06115e+07
threshold=19.516666666666669 0 1 1.0000000180025095e-35 14.575000000000001 19.950000000000003 42.500000000000007 320.50000000000006 2014.5000000000002 2 4.5000000000000009 3 26.500000000000004 24.500000000000004 3.5000000000000004 19.008333333333336 4 5 2010.5000000000002 21.500000000000004 11.500000000000002 40555.500000000007 27626.000000000004 294.50000000000006 6 17.500000000000004 17.500000000000004 1.0000000180025095e-35 429.50000000000006 3.5000000000000004
decision_type=2 9 9 2 2 2 2 2 2 9 2 9 2 2 2 2 9 9 2 2 2 2 2 2 9 2 2 2 2 2
left_child=1 2 4 25 5 -1 7 -6 11 10 -10 -3 13 14 -13 16 -16 21 -19 20 -8 -17 -15 -12 -14 26 -4 -27 -29 -18
right_child=-2 8 3 -5 6 -7 19 -9 9 -11 23 12 24 22 15 17 29 18 -20 -21 -22 -23 -24 -25 -26 27 -28 28 -30 -31
leaf_value=480.33685646057131 -228.79238481192752 -97.720423214934598 -57.195292302181855 189.25030286634291 -265.15143625010614 30.741779988606773 330.73436880111694 69.139794122605096 -72.638588180541987 -4.4594702621179128 264.09626893543066 101.80290975773589 -121.86316013105454 32.746786780276544 -69.945198657641086 39.784466904304068 28.79711320479711 25.597672667326751 -131.28650157644944 -28.385176372528079 110.20933622880416 189.94448582042349 227.5824240221296 37.128469267345615 -23.70754218918394 50.273559243338454 226.05077775391666 -285.04836559873638 -9.0102788289388016 -162.42698204403834
leaf_weight=26 29 162 38 37 23 30 29 21 20 316 63 94 114 59 417 244 240 108 74 24 55 44 35 21 241 28 22 33 24 21
leaf_count=26 29 162 38 37 23 30 29 21 20 316 63 94 114 59 417 244 240 108 74 24 55 44 35 21 241 28 22 33 24 21
internal_value=0 2.32048 63.307 8.26445 108.881 239.482 67.9278 -105.603 -8.38518 34.5505 140.044 -18.1622 -9.90397 3.15492 -4.57526 -13.2857 -38.8883 23.6475 -36.2013 138.626 186.343 60.6207 105.292 207.354 -59.3285 -37.3482 46.6616 -96.6492 -168.822 12.9164
internal_weight=0 2663 390 182 208 56 152 44 2273 420 104 1853 1691 1336 1242 1148 678 470 182 108 84 288 94 84 355 145 60 85 57 261
internal_count=2692 2663 390 182 208 56 152 44 2273 420 104 1853 1691 1336 1242 1148 678 470 182 108 84 288 94 84 355 145 60 85 57 261
cat_boundaries=0 2 3 5 7 8 9 11
cat_threshold=0 70785 2 1078468608 67108864 4202506 536903680 32 32 1076494336 134220292
is_linear=0
shrinkage=0.1


Tree=35
num_leaves=31
num_cat=1
split_feature=3 3 3 3 12 3 3 9 4 2 0 7 9 9 9 3 3 21 3 12 12 3 3 6 21 9 2 11 12 3
split_gain=1.29808e+08 2.14177e+08 3.32768e+08 2.82598e+08 2.52152e+08 1.31777e+08 2.36879e+08 1.52086e+08 1.32395e+08 1.27891e+08 1.24745e+08 1.00222e+08 9.99726e+07 9.33622e+07 1.28024e+08 8.30594e+07 1.73826e+08 1.26923e+08 1.06192e+08 8.6367e+07 8.22358e+07 1.5842e+08 1.00336e+08 7.52036e+07 7.49571e+07 1.1036e+08 7.37849e+07 7.23871e+07 9.40071e+07 6.93966e+07
